{"learner":{"attributes":{"best_iteration":"99","best_ntree_limit":"100","scikit_learn":"{\"n_estimators\": 100, \"objective\": \"reg:squarederror\", \"max_depth\": 7, \"max_leaves\": null, \"max_bin\": null, \"grow_policy\": null, \"learning_rate\": null, \"verbosity\": null, \"booster\": null, \"tree_method\": null, \"gamma\": null, \"min_child_weight\": null, \"max_delta_step\": null, \"subsample\": 0.7, \"sampling_method\": null, \"colsample_bytree\": 0.8, \"colsample_bylevel\": null, \"colsample_bynode\": null, \"reg_alpha\": null, \"reg_lambda\": null, \"scale_pos_weight\": null, \"base_score\": null, \"missing\": NaN, \"num_parallel_tree\": null, \"random_state\": null, \"n_jobs\": null, \"monotone_constraints\": null, \"interaction_constraints\": null, \"importance_type\": null, \"gpu_id\": null, \"validate_parameters\": null, \"predictor\": null, \"enable_categorical\": false, \"feature_types\": null, \"max_cat_to_onehot\": null, \"max_cat_threshold\": null, \"eval_metric\": null, \"early_stopping_rounds\": null, \"callbacks\": null, \"kwargs\": {\"eta\": 0.1}, \"_estimator_type\": \"regressor\"}"},"feature_names":["start_games","sub_games","mins","goals","assists","shot_per_game","offsides_per_game","total_shots","fouls_per_game","total_fouls","yellow_cards","red_cards","clean_sheets","points","xG","xA"],"feature_types":["int","int","int","int","int","float","float","float","float","float","int","int","int","int","float","float"],"gradient_booster":{"model":{"gbtree_model_param":{"num_parallel_tree":"1","num_trees":"100","size_leaf_vector":"0"},"tree_info":[0,0,0,0,0,0,0,0,0,0,0,0,0,0,0,0,0,0,0,0,0,0,0,0,0,0,0,0,0,0,0,0,0,0,0,0,0,0,0,0,0,0,0,0,0,0,0,0,0,0,0,0,0,0,0,0,0,0,0,0,0,0,0,0,0,0,0,0,0,0,0,0,0,0,0,0,0,0,0,0,0,0,0,0,0,0,0,0,0,0,0,0,0,0,0,0,0,0,0,0],"trees":[{"base_weights":[6.2780566E0,5.9467335E0,6.4451265E0],"categories":[],"categories_nodes":[],"categories_segments":[],"categories_sizes":[],"default_left":[1,0,0],"id":0,"left_children":[1,-1,-1],"loss_changes":[9.0984375E1,0E0,0E0],"parents":[2147483647,0,0],"right_children":[2,-1,-1],"split_conditions":[8.5E0,5.9467334E-1,6.4451265E-1],"split_indices":[0,0,0],"split_type":[0,0,0],"sum_hessian":[2.335E3,7.95E2,1.54E3],"tree_param":{"num_deleted":"0","num_feature":"16","num_nodes":"3","size_leaf_vector":"0"}},{"base_weights":[5.648814E0,5.3940315E0,5.833702E0,5.0441675E0,5.4758625E0],"categories":[],"categories_nodes":[],"categories_segments":[],"categories_sizes":[],"default_left":[1,1,0,0,0],"id":1,"left_children":[1,3,-1,-1,-1],"loss_changes":[7.9515625E1,1.1230469E0,0E0,0E0,0E0],"parents":[2147483647,0,0,1,1],"right_children":[2,4,-1,-1,-1],"split_conditions":[1.25E1,5E-1,5.833702E-1,5.0441676E-1,5.4758626E-1],"split_indices":[0,0,0,0,0],"split_type":[0,0,0,0,0],"sum_hessian":[2.355E3,1.003E3,1.352E3,2.02E2,8.01E2],"tree_param":{"num_deleted":"0","num_feature":"16","num_nodes":"5","size_leaf_vector":"0"}},{"base_weights":[5.078066E0,4.968351E0,5.37146E0,4.826752E0,5.0902176E0],"categories":[],"categories_nodes":[],"categories_segments":[],"categories_sizes":[],"default_left":[1,1,0,0,0],"id":2,"left_children":[1,3,-1,-1,-1],"loss_changes":[4.9285156E1,5.3007812E0,0E0,0E0,0E0],"parents":[2147483647,0,0,1,1],"right_children":[2,4,-1,-1,-1],"split_conditions":[2.5644104E0,8.75E0,5.3714603E-1,4.8267522E-1,5.0902176E-1],"split_indices":[15,9,0,0,0],"split_type":[0,0,0,0,0],"sum_hessian":[2.359E3,1.73E3,6.29E2,8.19E2,9.11E2],"tree_param":{"num_deleted":"0","num_feature":"16","num_nodes":"5","size_leaf_vector":"0"}},{"base_weights":[4.5799704E0,4.2438045E0,4.683287E0,4.610794E0,4.9136295E0],"categories":[],"categories_nodes":[],"categories_segments":[],"categories_sizes":[],"default_left":[1,0,1,0,0],"id":3,"left_children":[1,-1,3,-1,-1],"loss_changes":[6.0839844E1,0E0,6.8671875E0,0E0,0E0],"parents":[2147483647,0,0,2,2],"right_children":[2,-1,4,-1,-1],"split_conditions":[4.5E0,4.2438045E-1,3.8201923E0,4.6107942E-1,4.9136296E-1],"split_indices":[0,0,15,0,0],"split_type":[0,0,0,0,0],"sum_hessian":[2.323E3,5.56E2,1.767E3,1.36E3,4.07E2],"tree_param":{"num_deleted":"0","num_feature":"16","num_nodes":"5","size_leaf_vector":"0"}},{"base_weights":[4.123299E0,3.9491239E0,4.2976685E0,3.7277625E0,4.025856E0,4.249462E0,4.7801394E0],"categories":[],"categories_nodes":[],"categories_segments":[],"categories_sizes":[],"default_left":[1,1,1,0,0,0,0],"id":4,"left_children":[1,3,5,-1,-1,-1,-1],"loss_changes":[5.598047E1,5.611328E0,7.3398438E0,0E0,0E0,0E0,0E0],"parents":[2147483647,0,0,1,1,2,2],"right_children":[2,4,6,-1,-1,-1,-1],"split_conditions":[1.4425E3,1.425E2,2.75E0,3.7277624E-1,4.025856E-1,4.2494622E-1,4.7801396E-1],"split_indices":[2,2,5,0,0,0,0],"split_type":[0,0,0,0,0,0,0],"sum_hessian":[2.401E3,1.213E3,1.188E3,3.25E2,8.88E2,1.089E3,9.9E1],"tree_param":{"num_deleted":"0","num_feature":"16","num_nodes":"7","size_leaf_vector":"0"}},{"base_weights":[3.7018209E0,3.5562446E0,3.8806362E0,3.2585316E0,3.617112E0,3.8289716E0,4.235629E0],"categories":[],"categories_nodes":[],"categories_segments":[],"categories_sizes":[],"default_left":[1,1,1,0,0,0,0],"id":5,"left_children":[1,3,5,-1,-1,-1,-1],"loss_changes":[4.820508E1,1.2224609E1,3.1865234E0,0E0,0E0,0E0,0E0],"parents":[2147483647,0,0,1,1,2,2],"right_children":[2,4,6,-1,-1,-1,-1],"split_conditions":[1.614E3,8.85E1,1.15E1,3.2585317E-1,3.617112E-1,3.8289717E-1,4.235629E-1],"split_indices":[2,2,3,0,0,0,0],"split_type":[0,0,0,0,0,0,0],"sum_hessian":[2.381E3,1.324E3,1.057E3,2.34E2,1.09E3,9.33E2,1.24E2],"tree_param":{"num_deleted":"0","num_feature":"16","num_nodes":"7","size_leaf_vector":"0"}},{"base_weights":[3.3417325E0,3.1584299E0,3.456821E0,3.4123E0,3.8336694E0],"categories":[],"categories_nodes":[],"categories_segments":[],"categories_sizes":[],"default_left":[1,0,1,0,0],"id":6,"left_children":[1,-1,3,-1,-1],"loss_changes":[3.920508E1,0E0,1.1228516E1,0E0,0E0],"parents":[2147483647,0,0,2,2],"right_children":[2,-1,4,-1,-1],"split_conditions":[1.05E1,3.15843E-1,2.45E0,3.4123E-1,3.8336694E-1],"split_indices":[0,0,5,0,0],"split_type":[0,0,0,0,0],"sum_hessian":[2.375E3,9.27E2,1.448E3,1.304E3,1.44E2],"tree_param":{"num_deleted":"0","num_feature":"16","num_nodes":"5","size_leaf_vector":"0"}},{"base_weights":[3.0067577E0,2.8682766E0,3.133039E0,2.5917318E0,2.9085548E0,3.0950696E0,3.4659095E0],"categories":[],"categories_nodes":[],"categories_segments":[],"categories_sizes":[],"default_left":[1,1,1,0,0,0,0],"id":7,"left_children":[1,3,5,-1,-1,-1,-1],"loss_changes":[3.2632812E1,5.2382812E0,4.8691406E0,0E0,0E0,0E0,0E0],"parents":[2147483647,0,0,1,1,2,2],"right_children":[2,4,6,-1,-1,-1,-1],"split_conditions":[1.45E1,4.4E1,6.827133E0,2.5917318E-1,2.908555E-1,3.0950698E-1,3.4659097E-1],"split_indices":[0,2,15,0,0,0,0],"split_type":[0,0,0,0,0,0,0],"sum_hessian":[2.379E3,1.146E3,1.233E3,1.54E2,9.92E2,1.116E3,1.17E2],"tree_param":{"num_deleted":"0","num_feature":"16","num_nodes":"7","size_leaf_vector":"0"}},{"base_weights":[2.702329E0,2.478906E0,2.7714808E0,2.7361138E0,3.0236385E0,2.6448538E0,2.7934492E0],"categories":[],"categories_nodes":[],"categories_segments":[],"categories_sizes":[],"default_left":[1,0,1,1,0,0,0],"id":8,"left_children":[1,-1,3,5,-1,-1,-1],"loss_changes":[2.9902344E1,0E0,7.859375E0,9.6777344E-1,0E0,0E0,0E0],"parents":[2147483647,0,0,2,2,3,3],"right_children":[2,-1,4,6,-1,-1,-1],"split_conditions":[4.5E0,2.4789059E-1,2.05E0,6.45E1,3.0236384E-1,2.644854E-1,2.7934492E-1],"split_indices":[0,0,5,13,0,0,0],"split_type":[0,0,0,0,0,0,0],"sum_hessian":[2.379E3,5.71E2,1.808E3,1.596E3,2.12E2,6.34E2,9.62E2],"tree_param":{"num_deleted":"0","num_feature":"16","num_nodes":"7","size_leaf_vector":"0"}},{"base_weights":[2.4318216E0,2.3287857E0,2.5579004E0,2.1165977E0,2.3667488E0,2.5337355E0,3.0867357E0,2.4361556E0,2.2621713E0],"categories":[],"categories_nodes":[],"categories_segments":[],"categories_sizes":[],"default_left":[1,1,1,0,1,0,0,0,0],"id":9,"left_children":[1,3,5,-1,7,-1,-1,-1,-1],"loss_changes":[2.5129883E1,5.6875E0,5.801758E0,0E0,2.604004E0,0E0,0E0,0E0,0E0],"parents":[2147483647,0,0,1,1,2,2,4,4],"right_children":[2,4,6,-1,8,-1,-1,-1,-1],"split_conditions":[1.75E1,5E-1,3.45E0,2.1165977E-1,5.5E0,2.5337356E-1,3.086736E-1,2.4361555E-1,2.2621714E-1],"split_indices":[0,0,5,0,1,0,0,0,0],"split_type":[0,0,0,0,0,0,0,0,0],"sum_hessian":[2.392E3,1.327E3,1.065E3,2.1E2,1.117E3,1.024E3,4.1E1,6.58E2,4.59E2],"tree_param":{"num_deleted":"0","num_feature":"16","num_nodes":"9","size_leaf_vector":"0"}},{"base_weights":[2.1895773E0,1.9842846E0,2.2408557E0,2.2130606E0,2.5428808E0,2.138065E0,2.2606068E0],"categories":[],"categories_nodes":[],"categories_segments":[],"categories_sizes":[],"default_left":[1,0,1,1,0,0,0],"id":10,"left_children":[1,-1,3,5,-1,-1,-1],"loss_changes":[2.074414E1,0E0,1.0381836E1,1.421875E0,0E0,0E0,0E0],"parents":[2147483647,0,0,2,2,3,3],"right_children":[2,-1,4,6,-1,-1,-1],"split_conditions":[3.05E2,1.9842847E-1,6.33912E0,6.45E1,2.5428808E-1,2.1380651E-1,2.2606067E-1],"split_indices":[2,0,15,13,0,0,0],"split_type":[0,0,0,0,0,0,0],"sum_hessian":[2.392E3,4.86E2,1.906E3,1.753E3,1.53E2,6.98E2,1.055E3],"tree_param":{"num_deleted":"0","num_feature":"16","num_nodes":"7","size_leaf_vector":"0"}},{"base_weights":[1.9689561E0,1.8879023E0,2.0870993E0,1.7536606E0,1.9301134E0,2.0592294E0,2.4291847E0,2.0030277E0,1.8361412E0,1.8507264E0,2.0843256E0,2.1410635E0,1.9834018E0],"categories":[],"categories_nodes":[],"categories_segments":[],"categories_sizes":[],"default_left":[1,1,1,0,1,1,0,0,0,0,1,0,0],"id":11,"left_children":[1,3,5,-1,7,9,-1,-1,-1,-1,11,-1,-1],"loss_changes":[1.8640625E1,4.599121E0,4.0546875E0,0E0,3.598877E0,7.7319336E-1,0E0,0E0,0E0,0E0,2.3120117E-1,0E0,0E0],"parents":[2147483647,0,0,1,1,2,2,4,4,5,5,10,10],"right_children":[2,4,6,-1,8,10,-1,-1,-1,-1,12,-1,-1],"split_conditions":[1.95E1,1.5E0,8.231803E0,1.7536606E-1,5.5E0,1.1713002E-1,2.4291848E-1,2.0030276E-1,1.8361412E-1,1.8507265E-1,3.5E0,2.1410635E-1,1.9834018E-1],"split_indices":[0,0,15,0,1,14,0,0,0,0,1,0,0],"split_type":[0,0,0,0,0,0,0,0,0,0,0,0,0],"sum_hessian":[2.357E3,1.408E3,9.49E2,3.47E2,1.061E3,8.84E2,6.5E1,5.86E2,4.75E2,1.03E2,7.81E2,4.87E2,2.94E2],"tree_param":{"num_deleted":"0","num_feature":"16","num_nodes":"13","size_leaf_vector":"0"}},{"base_weights":[1.7709694E0,1.7275364E0,1.9627031E0,1.5400578E0,1.7524879E0,1.9172909E0,2.326825E0,1.8076203E0,1.6286424E0,1.7407264E0,1.8761691E0],"categories":[],"categories_nodes":[],"categories_segments":[],"categories_sizes":[],"default_left":[1,1,1,0,1,0,0,1,0,0,0],"id":12,"left_children":[1,3,5,-1,7,-1,-1,9,-1,-1,-1],"loss_changes":[1.6328613E1,6.371582E0,2.6490479E0,0E0,8.69043E0,0E0,0E0,2.098877E0,0E0,0E0,0E0],"parents":[2147483647,0,0,1,1,2,2,4,4,7,7],"right_children":[2,4,6,-1,8,-1,-1,10,-1,-1,-1],"split_conditions":[3.5E0,8.85E1,3.15E0,1.5400578E-1,5.5E0,1.917291E-1,2.326825E-1,4.5E-1,1.6286425E-1,1.7407264E-1,1.8761691E-1],"split_indices":[4,2,5,0,1,0,0,5,0,0,0],"split_type":[0,0,0,0,0,0,0,0,0,0,0],"sum_hessian":[2.367E3,1.938E3,4.29E2,2.35E2,1.703E3,3.87E2,4.2E1,1.169E3,5.34E2,6.05E2,5.64E2],"tree_param":{"num_deleted":"0","num_feature":"16","num_nodes":"11","size_leaf_vector":"0"}},{"base_weights":[1.5989076E0,1.5439322E0,1.723915E0,1.3224308E0,1.5645243E0,1.8122884E0,1.5845783E0,1.6333522E0,1.4908183E0,1.5428542E0,1.6898555E0,1.5492383E0,6.6874933E-1],"categories":[],"categories_nodes":[],"categories_segments":[],"categories_sizes":[],"default_left":[1,1,1,0,1,0,0,1,0,1,0,0,0],"id":13,"left_children":[1,3,5,-1,7,-1,-1,9,-1,11,-1,-1,-1],"loss_changes":[1.3708496E1,5.520752E0,5.9819336E0,0E0,5.260742E0,0E0,0E0,1.3505859E0,0E0,6.882324E-1,0E0,0E0,0E0],"parents":[2147483647,0,0,1,1,2,2,4,4,7,7,9,9],"right_children":[2,4,6,-1,8,-1,-1,10,-1,12,-1,-1,-1],"split_conditions":[2.1686409E0,3.55E1,5.5E0,1.3224308E-1,2.5E0,1.8122885E-1,1.5845783E-1,4.8528202E-2,1.4908183E-1,2.65E0,1.6898555E-1,1.5492384E-1,6.6874936E-2],"split_indices":[15,2,1,0,1,0,0,15,0,8,0,0,0],"split_type":[0,0,0,0,0,0,0,0,0,0,0,0,0],"sum_hessian":[2.381E3,1.663E3,7.18E2,1.47E2,1.516E3,4.32E2,2.86E2,7.73E2,7.43E2,3.08E2,4.65E2,3.05E2,3E0],"tree_param":{"num_deleted":"0","num_feature":"16","num_nodes":"13","size_leaf_vector":"0"}},{"base_weights":[1.4410409E0,1.3923315E0,1.559652E0,1.293628E0,1.4310962E0,1.6544856E0,1.4357886E0,1.4881543E0,1.2467602E0,1.4737045E0,1.3134573E0,1.623904E0,1.966522E0,4.0830246E-1,1.5082853E0,1.4173001E0,1.5261096E0],"categories":[],"categories_nodes":[],"categories_segments":[],"categories_sizes":[],"default_left":[1,1,1,1,1,1,0,1,0,1,0,0,0,0,0,0,0],"id":14,"left_children":[1,3,5,7,9,11,-1,13,-1,15,-1,-1,-1,-1,-1,-1,-1],"loss_changes":[1.146875E1,4.588379E0,5.600342E0,2.5664062E0,4.0742188E0,4.136963E-1,0E0,1.3189087E0,0E0,4.1455078E-1,0E0,0E0,0E0,0E0,0E0,0E0,0E0],"parents":[2147483647,0,0,1,1,2,2,3,3,4,4,5,5,7,7,9,9],"right_children":[2,4,6,8,10,12,-1,14,-1,16,-1,-1,-1,-1,-1,-1,-1],"split_conditions":[2.5E0,3.5E0,5.5E0,5E-1,5.5E0,2.35E1,1.4357887E-1,3.8E1,1.2467603E-1,1.15E1,1.3134573E-1,1.623904E-1,1.966522E-1,4.0830247E-2,1.5082853E-1,1.4173001E-1,1.5261096E-1],"split_indices":[3,0,1,1,1,3,0,13,0,12,0,0,0,0,0,0,0],"split_type":[0,0,0,0,0,0,0,0,0,0,0,0,0,0,0,0,0],"sum_hessian":[2.36E3,1.682E3,6.78E2,4.84E2,1.198E3,3.77E2,3.01E2,8.8E1,3.96E2,8.71E2,3.27E2,3.49E2,2.8E1,2E0,8.6E1,4.33E2,4.38E2],"tree_param":{"num_deleted":"0","num_feature":"16","num_nodes":"17","size_leaf_vector":"0"}},{"base_weights":[1.2968689E0,1.2194625E0,1.3567826E0,1.1594967E0,1.2586943E0,1.455839E0,1.2751999E0,1.2150825E0,1.0811177E0,1.299559E0,1.169593E0,1.437587E0,1.9286976E0,1.3133825E0,1.1718305E0,1.2125368E0,1.3474772E0],"categories":[],"categories_nodes":[],"categories_segments":[],"categories_sizes":[],"default_left":[1,1,1,1,1,1,1,0,0,1,0,0,0,0,0,0,0],"id":15,"left_children":[1,3,5,7,9,11,13,-1,-1,15,-1,-1,-1,-1,-1,-1,-1],"loss_changes":[9.295166E0,9.871826E-1,8.827148E0,5.336304E-1,7.265625E-1,2.319336E0,1.3540039E0,0E0,0E0,9.25293E-2,0E0,0E0,0E0,0E0,0E0,0E0,0E0],"parents":[2147483647,0,0,1,1,2,2,3,3,4,4,5,5,6,6,9,9],"right_children":[2,4,6,8,10,12,14,-1,-1,16,-1,-1,-1,-1,-1,-1,-1],"split_conditions":[5E-1,3.5E0,3.5E0,1.5E0,3.5E0,1.0980176E1,1.05E1,1.21508256E-1,1.0811178E-1,8.5E-1,1.16959296E-1,1.437587E-1,1.9286977E-1,1.3133825E-1,1.1718305E-1,1.21253684E-1,1.3474773E-1],"split_indices":[3,0,1,1,1,15,1,0,0,7,0,0,0,0,0,0,0],"split_type":[0,0,0,0,0,0,0,0,0,0,0,0,0,0,0,0,0],"sum_hessian":[2.36E3,1.039E3,1.321E3,4.23E2,6.16E2,5.89E2,7.32E2,2.39E2,1.84E2,4.13E2,2.03E2,5.71E2,1.8E1,5.26E2,2.06E2,1.56E2,2.57E2],"tree_param":{"num_deleted":"0","num_feature":"16","num_nodes":"17","size_leaf_vector":"0"}},{"base_weights":[1.165511E0,1.1234064E0,1.277086E0,1.0440555E0,1.1551366E0,1.32958E0,1.1650835E0,1.185898E0,1.0053722E0,1.1794473E0,1.0236974E0,1.2650859E0,1.4505674E0,9.795161E-1,1.2582859E0,1.124882E0,1.2265464E0,1.278035E0,6.030419E-1,1.098784E0,1.2539157E0],"categories":[],"categories_nodes":[],"categories_segments":[],"categories_sizes":[],"default_left":[1,1,1,1,1,1,0,1,0,1,0,0,0,0,1,0,1,0,0,0,0],"id":16,"left_children":[1,3,5,7,9,11,-1,13,-1,15,-1,-1,-1,-1,17,-1,19,-1,-1,-1,-1],"loss_changes":[9.647217E0,3.1271973E0,2.2078857E0,1.5621338E0,2.690918E0,1.5045776E0,0E0,2.913208E-1,0E0,1.2493896E0,0E0,0E0,0E0,0E0,1.6101074E-1,0E0,5.03479E-1,0E0,0E0,0E0,0E0],"parents":[2147483647,0,0,1,1,2,2,3,3,4,4,5,5,7,7,9,9,14,14,16,16],"right_children":[2,4,6,8,10,12,-1,14,-1,16,-1,-1,-1,-1,18,-1,20,-1,-1,-1,-1],"split_conditions":[2.5E0,3.5E0,6.5E0,5E-1,8.5E0,7.85E1,1.1650836E-1,6.2E1,1.0053722E-1,6.55E1,1.0236974E-1,1.265086E-1,1.4505674E-1,9.795161E-2,7.5E-1,1.124882E-1,4.35E0,1.278035E-1,6.030419E-2,1.098784E-1,1.2539157E-1],"split_indices":[4,0,1,1,1,13,0,13,0,13,0,0,0,0,6,0,9,0,0,0,0],"split_type":[0,0,0,0,0,0,0,0,0,0,0,0,0,0,0,0,0,0,0,0,0],"sum_hessian":[2.358E3,1.72E3,6.38E2,5.01E2,1.219E3,4.27E2,2.11E2,1.01E2,4E2,1.022E3,1.97E2,2.86E2,1.41E2,3E1,7.1E1,4.85E2,5.37E2,6.8E1,3E0,1.02E2,4.35E2],"tree_param":{"num_deleted":"0","num_feature":"16","num_nodes":"21","size_leaf_vector":"0"}},{"base_weights":[1.052354E0,9.936392E-1,1.1127849E0,8.251512E-1,1.0082992E0,1.1932647E0,1.0470604E0,1.0592619E0,9.370391E-1,1.12352E0,1.2678775E0,9.9850005E-1,1.1274693E0,9.8942983E-1,1.1028991E0,8.834741E-1,9.7258794E-1,1.1453093E0,1.3379862E0,9.70558E-1,1.0923679E0],"categories":[],"categories_nodes":[],"categories_segments":[],"categories_sizes":[],"default_left":[1,1,1,0,1,1,1,1,1,0,1,1,0,0,0,0,0,0,0,0,0],"id":17,"left_children":[1,3,5,-1,7,9,11,13,15,-1,17,19,-1,-1,-1,-1,-1,-1,-1,-1,-1],"loss_changes":[7.3498535E0,2.1765137E0,4.918091E0,0E0,3.0603027E0,1.2658691E0,1.4122314E0,8.6816406E-1,4.333496E-2,0E0,5.4711914E-1,2.5665283E-2,0E0,0E0,0E0,0E0,0E0,0E0,0E0,0E0,0E0],"parents":[2147483647,0,0,1,1,2,2,4,4,5,5,6,6,7,7,8,8,10,10,11,11],"right_children":[2,4,6,-1,8,10,12,14,16,-1,18,20,-1,-1,-1,-1,-1,-1,-1,-1,-1],"split_conditions":[9.1781557E-1,1.85E1,3.5E0,8.251512E-2,2.5E0,7.25E1,7.75E1,6.35E1,6.25E1,1.12352006E-1,7.5E-1,1.8499999E0,1.1274693E-1,9.894299E-2,1.1028991E-1,8.834741E-2,9.72588E-2,1.14530936E-1,1.3379863E-1,9.70558E-2,1.0923679E-1],"split_indices":[15,2,1,0,1,13,13,13,13,0,5,5,0,0,0,0,0,0,0,0,0],"split_type":[0,0,0,0,0,0,0,0,0,0,0,0,0,0,0,0,0,0,0,0,0],"sum_hessian":[2.382E3,1.217E3,1.165E3,1.02E2,1.115E3,5.16E2,6.49E2,6.42E2,4.73E2,2.75E2,2.41E2,4.13E2,2.36E2,2.56E2,3.86E2,1.99E2,2.74E2,9.4E1,1.47E2,3.27E2,8.6E1],"tree_param":{"num_deleted":"0","num_feature":"16","num_nodes":"21","size_leaf_vector":"0"}},{"base_weights":[9.4261765E-1,9.236388E-1,1.1271389E0,8.688588E-1,9.531169E-1,1.0945309E0,1.6323646E0,7.438125E-1,8.877688E-1,1.0027938E0,8.771501E-1,2.509477E-1,1.0974361E0,9.408411E-1,8.1898725E-1,7.683492E-1,8.9258164E-1,9.434111E-1,5.236864E-3,9.166803E-1,8.1700104E-1,9.571151E-1,7.3793155E-1,1.0007051E0,8.703139E-1,7.5941753E-1,8.964801E-2],"categories":[],"categories_nodes":[],"categories_segments":[],"categories_sizes":[],"default_left":[1,1,1,1,1,1,0,0,1,0,1,0,0,1,0,0,1,1,0,0,0,1,1,0,0,0,0],"id":18,"left_children":[1,3,5,7,9,11,-1,-1,13,-1,15,-1,-1,17,-1,-1,19,21,-1,-1,-1,23,25,-1,-1,-1,-1],"loss_changes":[7.2026367E0,2.6275635E0,1.75531E0,1.1367798E0,4.331909E0,2.2697449E-1,0E0,0E0,1.6205444E0,0E0,2.4435425E-1,0E0,0E0,8.679199E-1,0E0,0E0,1.23535156E-1,3.1307983E-1,0E0,0E0,0E0,4.0039062E-1,3.0800247E-1,0E0,0E0,0E0,0E0],"parents":[2147483647,0,0,1,1,2,2,3,3,4,4,5,5,8,8,10,10,13,13,16,16,17,17,21,21,22,22],"right_children":[2,4,6,8,10,12,-1,-1,14,-1,16,-1,-1,18,-1,-1,20,22,-1,-1,-1,24,26,-1,-1,-1,-1],"split_conditions":[2.05E0,2.2727528E-1,1.356065E1,1.95E1,5.5E0,2.6385435E-1,1.6323647E-1,7.4381255E-2,1.5E0,1.0027938E-1,6.5548575E-1,2.5094772E-2,1.0974361E-1,2.9E0,8.189873E-2,7.683492E-2,1.25E1,5E-1,5.236864E-4,9.166803E-2,8.170011E-2,1.2875E3,2.5E0,1.00070514E-1,8.703139E-2,7.594176E-2,8.964801E-3],"split_indices":[5,15,15,2,1,14,0,0,1,0,15,0,0,8,0,0,1,11,0,0,0,2,8,0,0,0,0],"split_type":[0,0,0,0,0,0,0,0,0,0,0,0,0,0,0,0,0,0,0,0,0,0,0,0,0,0,0],"sum_hessian":[2.353E3,2.139E3,2.14E2,7.59E2,1.38E3,2.04E2,1E1,1.05E2,6.54E2,8.27E2,5.53E2,1E0,2.03E2,3.62E2,2.92E2,7.5E1,4.78E2,3.61E2,1E0,3.54E2,1.24E2,3.35E2,2.6E1,2.16E2,1.19E2,2.5E1,1E0],"tree_param":{"num_deleted":"0","num_feature":"16","num_nodes":"27","size_leaf_vector":"0"}},{"base_weights":[8.501014E-1,8.058837E-1,9.2098606E-1,8.358665E-1,7.4338055E-1,9.7389907E-1,8.326328E-1,7.105206E-1,8.5748625E-1,4.7983536E-1,7.4907637E-1,8.885807E-1,1.0261434E0,7.940936E-1,9.2528707E-1,8.0367064E-1,9.105249E-1,7.7092487E-1,6.8382585E-1,1.003848E0,1.3017714E0,7.5573146E-1,8.4363496E-1,8.8865197E-1,1.0415032E0,7.172248E-1,8.1095797E-1,3.9287734E-1,8.480359E-1,8.9149857E-1,4.1314042E-1],"categories":[],"categories_nodes":[],"categories_segments":[],"categories_sizes":[],"default_left":[1,1,1,1,1,1,1,0,1,0,1,0,1,0,0,1,1,1,0,0,0,0,1,1,0,0,0,0,0,0,0],"id":19,"left_children":[1,3,5,7,9,11,13,-1,15,-1,17,-1,19,-1,-1,21,23,25,-1,-1,-1,-1,27,29,-1,-1,-1,-1,-1,-1,-1],"loss_changes":[6.657959E0,2.1184082E0,3.3966064E0,2.0465088E0,3.656006E-1,1.5709839E0,4.935913E-1,0E0,1.6401367E0,0E0,1.4428711E-1,0E0,7.7645874E-1,0E0,0E0,1.6897583E-1,2.5195312E-1,1.6004944E-1,0E0,0E0,0E0,0E0,1.0525513E-1,1.17614746E-1,0E0,0E0,0E0,0E0,0E0,0E0,0E0],"parents":[2147483647,0,0,1,1,2,2,3,3,4,4,5,5,6,6,8,8,10,10,12,12,15,15,16,16,17,17,22,22,23,23],"right_children":[2,4,6,8,10,12,14,-1,16,-1,18,-1,20,-1,-1,22,24,26,-1,-1,-1,-1,28,30,-1,-1,-1,-1,-1,-1,-1],"split_conditions":[1.5E0,3.5E0,6.5E0,3.65E1,3.65E1,6.75E1,7.95E1,7.105207E-2,1.15E1,4.798354E-2,9.5E0,8.885807E-2,2.35E1,7.940936E-2,9.252871E-2,2.05E0,1.95E1,5.55E0,6.838258E-2,1.00384794E-1,1.3017714E-1,7.557315E-2,8.7E1,9E-1,1.0415032E-1,7.172248E-2,8.10958E-2,3.9287735E-2,8.480359E-2,8.9149855E-2,4.1314043E-2],"split_indices":[3,1,1,2,13,13,13,0,12,0,1,0,3,0,0,7,12,7,0,0,0,0,2,6,0,0,0,0,0,0,0],"split_type":[0,0,0,0,0,0,0,0,0,0,0,0,0,0,0,0,0,0,0,0,0,0,0,0,0,0,0,0,0,0,0],"sum_hessian":[2.36E3,1.461E3,8.99E2,9.79E2,4.82E2,5.56E2,3.43E2,1.49E2,8.3E2,1.2E1,4.7E2,2.18E2,3.38E2,2.49E2,9.4E1,4.2E2,4.1E2,3.44E2,1.26E2,3.17E2,2.1E1,2E2,2.2E2,3.58E2,5.2E1,1.55E2,1.89E2,3E0,2.17E2,3.55E2,3E0],"tree_param":{"num_deleted":"0","num_feature":"16","num_nodes":"31","size_leaf_vector":"0"}},{"base_weights":[7.6662344E-1,7.621901E-1,1.4150902E0,7.168259E-1,7.989987E-1,6.545771E-1,7.4135554E-1,8.7116075E-1,7.580776E-1,6.594086E-1,3.891577E-1,7.159615E-1,8.066128E-1,7.5462973E-1,8.964943E-1,7.748374E-1,6.4398754E-1,5.283642E-1,6.723537E-1,1.6812468E-1,4.348146E-1,7.395434E-1,6.58543E-1,8.1146866E-1,3.5973763E-1,8.377559E-1,9.40119E-1,7.4642354E-1,8.43606E-1,6.8901336E-1,5.3498113E-1,7.4063176E-1,1.6026783E-1,8.4669554E-1,5.0991046E-1,7.247545E-1,8.047909E-1,7.9073834E-1,9.156666E-1,6.959745E-1,4.33012E-1,7.530029E-1,6.3808835E-1,8.077459E-1,2.0884609E-1],"categories":[],"categories_nodes":[],"categories_segments":[],"categories_sizes":[],"default_left":[1,1,0,1,1,1,1,1,1,1,1,1,1,0,1,1,0,0,1,0,0,1,0,0,0,1,0,1,1,1,0,1,0,0,0,0,1,0,0,0,0,0,0,0,0],"id":20,"left_children":[1,3,-1,5,7,9,11,13,15,17,19,21,23,-1,25,27,-1,-1,29,-1,-1,31,-1,-1,-1,33,-1,35,37,39,-1,41,-1,-1,-1,-1,43,-1,-1,-1,-1,-1,-1,-1,-1],"loss_changes":[5.7663574E0,3.3797607E0,0E0,1.1485596E0,3.1725464E0,1.4219666E-1,6.819153E-1,6.9033813E-1,1.0995483E0,1.6046143E-1,7.6304674E-3,2.658081E-1,1.5290833E-1,0E0,1.7333984E-1,7.849426E-1,0E0,0E0,2.5617218E-1,0E0,0E0,1.2466431E-1,0E0,0E0,0E0,6.3568115E-2,0E0,7.5683594E-2,5.3131104E-2,1.2633514E-1,0E0,7.904053E-3,0E0,0E0,0E0,0E0,6.375885E-2,0E0,0E0,0E0,0E0,0E0,0E0,0E0,0E0],"parents":[2147483647,0,0,1,1,3,3,4,4,5,5,6,6,7,7,8,8,9,9,10,10,11,11,12,12,14,14,15,15,18,18,21,21,25,25,27,27,28,28,29,29,31,31,36,36],"right_children":[2,4,-1,6,8,10,12,14,16,18,20,22,24,-1,26,28,-1,-1,30,-1,-1,32,-1,-1,-1,34,-1,36,38,40,-1,42,-1,-1,-1,-1,44,-1,-1,-1,-1,-1,-1,-1,-1],"split_conditions":[1.2087008E1,5E-1,1.4150903E-1,1.5E0,2.5E0,1.5E0,1.45E1,8.5E0,1.35E1,3.5E0,3.5E0,3.5E0,4E-1,7.5462975E-2,7.5E-1,1.45E1,6.439876E-2,5.283642E-2,5E-2,1.6812468E-2,4.348146E-2,6.1724358E0,6.58543E-2,8.1146866E-2,3.5973765E-2,1.5E0,9.40119E-2,6.5E0,3.5E0,1.75E0,5.3498115E-2,5E-1,1.6026784E-2,8.466955E-2,5.0991047E-2,7.2475456E-2,1.5E0,7.907384E-2,9.156666E-2,6.959745E-2,4.3301202E-2,7.530029E-2,6.3808836E-2,8.077459E-2,2.0884609E-2],"split_indices":[15,3,0,0,1,10,12,12,1,2,1,1,6,0,5,12,0,0,6,0,0,15,0,0,0,11,0,3,3,5,0,11,0,0,0,0,11,0,0,0,0,0,0,0,0],"split_type":[0,0,0,0,0,0,0,0,0,0,0,0,0,0,0,0,0,0,0,0,0,0,0,0,0,0,0,0,0,0,0,0,0,0,0,0,0,0,0,0,0,0,0,0,0],"sum_hessian":[2.38E3,2.366E3,1.4E1,1.069E3,1.297E3,3.1E2,7.59E2,4.62E2,8.35E2,3.03E2,7E0,5.55E2,2.04E2,8.8E1,3.74E2,7.23E2,1.12E2,3.1E1,2.72E2,2E0,5E0,3.85E2,1.7E2,2.01E2,3E0,1.68E2,2.06E2,5.2E2,2.03E2,2.39E2,3.3E1,3.84E2,1E0,1.62E2,6E0,3.89E2,1.31E2,1.24E2,7.9E1,2.31E2,8E0,3.37E2,4.7E1,1.3E2,1E0],"tree_param":{"num_deleted":"0","num_feature":"16","num_nodes":"45","size_leaf_vector":"0"}},{"base_weights":[6.90106E-1,6.7167574E-1,7.953019E-1,6.345965E-1,7.059202E-1,7.6839244E-1,1.0603112E0,6.170047E-1,7.138026E-1,7.3959446E-1,6.385752E-1,5.357159E-1,7.818935E-1,5.7788897E-1,6.495032E-1,7.5289196E-1,5.803115E-1,6.808034E-1,7.620293E-1,6.2696475E-1,8.051853E-1,7.3467E-1,8.476327E-1,5.8115137E-1,-2.906847E-2,6.868431E-1,5.714667E-1,5.0300354E-1,7.7145207E-1,1.6751504E-1,5.8601564E-1,8.1694055E-1,7.341908E-1,6.329834E-1,5.480626E-1,-5.4461956E-2,1.0859251E-2,5.5838084E-1,7.0316494E-1,4.7291592E-1,7.8291553E-1,2.8883472E-1,7.3596627E-1,1.9616826E-1,5.501955E-1,5.7037055E-1,2.283775E-1,7.210406E-1,6.0024333E-1,1.05359554E-1,5.166154E-1],"categories":[],"categories_nodes":[],"categories_segments":[],"categories_sizes":[],"default_left":[1,1,1,1,1,1,0,1,1,1,1,0,1,1,1,1,1,0,1,0,0,0,0,1,1,1,0,0,1,0,0,0,1,0,1,0,0,1,1,1,0,0,0,0,0,0,0,0,0,0,0],"id":21,"left_children":[1,3,5,7,9,11,-1,13,15,17,19,-1,21,23,25,27,29,-1,31,-1,-1,-1,-1,33,35,37,-1,-1,39,-1,-1,-1,41,-1,43,-1,-1,45,47,49,-1,-1,-1,-1,-1,-1,-1,-1,-1,-1,-1],"loss_changes":[4.140259E0,2.1652222E0,1.709732E0,9.501648E-1,1.9338379E0,6.0206604E-1,0E0,6.720886E-1,4.7625732E-1,4.0579224E-1,1.9348145E-1,0E0,3.241272E-1,7.752838E-1,8.9541626E-1,2.2416687E-1,5.4388046E-3,0E0,1.630249E-1,0E0,0E0,0E0,0E0,3.065338E-1,3.633128E-3,2.2381592E-1,0E0,0E0,4.38385E-2,0E0,0E0,0E0,5.7052612E-2,0E0,7.219696E-2,0E0,0E0,2.009201E-2,4.0039062E-2,5.8003783E-2,0E0,0E0,0E0,0E0,0E0,0E0,0E0,0E0,0E0,0E0,0E0],"parents":[2147483647,0,0,1,1,2,2,3,3,4,4,5,5,7,7,8,8,9,9,10,10,12,12,13,13,14,14,15,15,16,16,18,18,23,23,24,24,25,25,28,28,32,32,34,34,37,37,38,38,39,39],"right_children":[2,4,6,8,10,12,-1,14,16,18,20,-1,22,24,26,28,30,-1,32,-1,-1,-1,-1,34,36,38,-1,-1,40,-1,-1,-1,42,-1,44,-1,-1,46,48,50,-1,-1,-1,-1,-1,-1,-1,-1,-1,-1,-1],"split_conditions":[8.65E1,7.5977576E-1,1.35E1,1.45E1,6.5E0,4.4E1,1.0603112E-1,5.0298333E-2,3.5E0,6.05E1,6.614662E0,5.357159E-2,8.5E-1,2.6E0,4.5E0,1.8E1,5.9E1,6.808034E-2,1.5E0,6.269648E-2,8.0518536E-2,7.3467E-2,8.476327E-2,5E-1,1.5E0,6.5E0,5.714667E-2,5.0300356E-2,5.8E1,1.6751504E-2,5.8601566E-2,8.169406E-2,5E-2,6.329834E-2,4.5E0,-5.4461956E-3,1.0859251E-3,1.45E0,5E-1,2E0,7.829156E-2,2.8883472E-2,7.359663E-2,1.9616826E-2,5.5019554E-2,5.7037055E-2,2.283775E-2,7.210406E-2,6.0024332E-2,1.0535955E-2,5.166154E-2],"split_indices":[13,15,3,12,1,2,0,15,1,13,15,0,8,8,1,2,13,0,1,0,0,0,0,1,0,12,0,0,13,0,0,0,5,0,12,0,0,5,11,0,0,0,0,0,0,0,0,0,0,0,0],"split_type":[0,0,0,0,0,0,0,0,0,0,0,0,0,0,0,0,0,0,0,0,0,0,0,0,0,0,0,0,0,0,0,0,0,0,0,0,0,0,0,0,0,0,0,0,0,0,0,0,0,0,0],"sum_hessian":[2.41E3,2.057E3,3.53E2,9.97E2,1.06E3,3.24E2,2.9E1,8.23E2,1.74E2,7E2,3.6E2,2E1,3.04E2,3.82E2,4.41E2,1.31E2,4.3E1,2.02E2,4.98E2,3.41E2,1.9E1,1.84E2,1.2E2,3.8E2,2E0,2.93E2,1.48E2,1.1E1,1.2E2,1E0,4.2E1,1.58E2,3.4E2,1.41E2,2.39E2,1E0,1E0,3.7E1,2.56E2,6E0,1.14E2,2E0,3.38E2,2E0,2.37E2,3.5E1,2E0,2.13E2,4.3E1,1E0,5E0],"tree_param":{"num_deleted":"0","num_feature":"16","num_nodes":"51","size_leaf_vector":"0"}},{"base_weights":[6.231041E-1,5.7396084E-1,6.632934E-1,5.002593E-1,5.881264E-1,6.354942E-1,7.6310486E-1,5.027626E-1,2.6078701E-2,5.45307E-1,6.0543555E-1,5.703693E-1,6.603928E-1,7.292574E-1,1.0005176E0,4.7763774E-1,5.7465816E-1,6.014868E-1,8.703843E-1,5.1410276E-1,5.9473133E-1,6.608523E-1,1.6201568E-1,3.0717328E-1,4.9826849E-1,5.963584E-1,4.5430213E-1,6.024712E-1,2.9854488E-1,2.5422668E-1,9.307061E-1,5.166593E-1,1.3689208E-1,6.4205015E-1,6.9474554E-1,1.3790846E-1,3.4827173E-1,5.0416267E-1,1.8678808E-1,6.692487E-1,5.536479E-1,1.5856878E-1,5.0319463E-1,5.2076703E-1,2.1846946E-1,6.7608404E-1,5.998685E-1,9.366387E-1,6.817719E-1,2.4426858E-1,-9.058595E-2,3.6958373E-1,8.888793E-2,1.0316372E-2,2.6986575E-1,7.1305084E-1,4.451454E-1,3.767252E-2,1.7521353E-1,5.24045E-1,1.6170995E-1,6.7954797E-1,3.635153E-1,5.5303943E-1,6.762925E-1],"categories":[],"categories_nodes":[],"categories_segments":[],"categories_sizes":[],"default_left":[1,1,1,1,1,1,1,0,0,1,1,1,1,0,0,1,1,1,1,1,0,1,0,1,1,1,1,0,0,0,0,1,0,1,1,1,1,0,1,1,0,1,1,0,0,1,1,0,0,0,0,0,0,0,0,0,0,0,0,0,0,0,0,0,0],"id":22,"left_children":[1,3,5,7,9,11,13,-1,-1,15,17,19,21,-1,-1,23,25,27,29,31,-1,33,-1,35,37,39,41,-1,-1,-1,-1,43,-1,45,47,49,51,-1,53,55,-1,57,59,-1,-1,61,63,-1,-1,-1,-1,-1,-1,-1,-1,-1,-1,-1,-1,-1,-1,-1,-1,-1,-1],"loss_changes":[4.3060913E0,8.28125E-1,3.1193848E0,2.0056152E-1,3.3392334E-1,1.2805176E0,1.5043182E0,0E0,0E0,2.578125E-1,1.34552E-1,9.176636E-2,6.0821533E-2,0E0,0E0,1.5290642E-1,2.0441437E-1,5.9051514E-3,2.3563862E-2,2.0887375E-2,0E0,2.0385742E-2,0E0,3.544867E-2,4.5358658E-2,9.9559784E-2,3.8290167E-1,0E0,0E0,0E0,0E0,1.367569E-3,0E0,2.8927612E-1,1.4283752E-1,1.19338065E-1,1.6900301E-2,0E0,4.1198537E-2,1.832161E-1,0E0,5.472988E-3,1.07498646E-1,0E0,0E0,3.4477234E-2,4.3122864E-1,0E0,0E0,0E0,0E0,0E0,0E0,0E0,0E0,0E0,0E0,0E0,0E0,0E0,0E0,0E0,0E0,0E0,0E0],"parents":[2147483647,0,0,1,1,2,2,3,3,4,4,5,5,6,6,9,9,10,10,11,11,12,12,15,15,16,16,17,17,18,18,19,19,21,21,23,23,24,24,25,25,26,26,31,31,33,33,34,34,35,35,36,36,38,38,39,39,41,41,42,42,45,45,46,46],"right_children":[2,4,6,8,10,12,14,-1,-1,16,18,20,22,-1,-1,24,26,28,30,32,-1,34,-1,36,38,40,42,-1,-1,-1,-1,44,-1,46,48,50,52,-1,54,56,-1,58,60,-1,-1,62,64,-1,-1,-1,-1,-1,-1,-1,-1,-1,-1,-1,-1,-1,-1,-1,-1,-1,-1],"split_conditions":[5E-1,6.05E1,8.35E1,5.95E1,5.95E1,5.95E1,7.7338142E0,5.027626E-2,2.6078701E-3,2.88E2,1.6E0,6.5E-1,1.35E1,7.292574E-2,1.0005176E-1,3.65E1,5E-1,6.1724358E0,7.55E1,5.5E0,5.9473135E-2,1.45E0,1.6201569E-2,5E-1,7.9E0,8.5E0,5E-1,6.024712E-2,2.985449E-2,2.5422668E-2,9.307061E-2,2.880992E0,1.3689208E-2,1.7898139E0,2.325E1,1.5E0,5E-1,5.041627E-2,2.1E2,8.950001E0,5.5364788E-2,4.07E2,5.75E1,5.2076705E-2,2.1846946E-2,4.8754025E0,2.269E3,9.366387E-2,6.8177186E-2,2.4426859E-2,-9.058595E-3,3.6958374E-2,8.888793E-3,1.0316372E-3,2.6986575E-2,7.130509E-2,4.451454E-2,3.767252E-3,1.7521353E-2,5.24045E-2,1.6170995E-2,6.79548E-2,3.6351528E-2,5.5303942E-2,6.762925E-2],"split_indices":[3,2,13,2,13,13,15,0,0,2,5,5,10,0,0,13,11,15,2,4,0,5,0,9,9,0,10,0,0,0,0,14,0,14,7,0,11,0,2,7,0,2,13,0,0,15,2,0,0,0,0,0,0,0,0,0,0,0,0,0,0,0,0,0,0],"split_type":[0,0,0,0,0,0,0,0,0,0,0,0,0,0,0,0,0,0,0,0,0,0,0,0,0,0,0,0,0,0,0,0,0,0,0,0,0,0,0,0,0,0,0,0,0,0,0,0,0,0,0,0,0,0,0,0,0,0,0,0,0,0,0,0,0],"sum_hessian":[2.372E3,1.074E3,1.298E3,1.79E2,8.95E2,1.021E3,2.77E2,1.78E2,1E0,2.67E2,6.28E2,2.89E2,7.32E2,2.46E2,3.1E1,8.6E1,1.81E2,6.22E2,6E0,9.4E1,1.95E2,7.31E2,1E0,1.1E1,7.5E1,1.5E2,3.1E1,6.19E2,3E0,1E0,5E0,9.3E1,1E0,4.83E2,2.48E2,3E0,8E0,7.3E1,2E0,5E1,1E2,5E0,2.6E1,9.1E1,2E0,2.59E2,2.24E2,9E0,2.39E2,2E0,1E0,7E0,1E0,1E0,1E0,4E1,1E1,1E0,4E0,2.4E1,2E0,2.55E2,4E0,1.44E2,8E1],"tree_param":{"num_deleted":"0","num_feature":"16","num_nodes":"65","size_leaf_vector":"0"}},{"base_weights":[5.6146574E-1,5.5312866E-1,7.5369877E-1,5.385105E-1,6.213769E-1,6.990717E-1,1.1221975E0,5.771975E-1,5.155615E-1,4.706397E-1,6.361936E-1,7.962754E-1,6.0927135E-1,5.0055045E-1,6.166747E-1,4.7254917E-1,5.466541E-1,6.5991324E-1,5.096297E-1,5.028239E-1,1.4879529E-1,5.7464206E-1,6.571158E-1,4.155047E-1,4.9078515E-1,5.6108624E-1,4.595285E-1,5.787074E-1,6.918899E-1,1.1570597E-1,5.141907E-1,5.3731096E-1,6.3197184E-1,6.607233E-1,1.651082E-1,8.269119E-2,4.17414E-1,5.179997E-1,4.3614763E-1,5.9318763E-1,5.382416E-1,4.1708162E-1,5.39501E-1,5.9996736E-1,4.4022468E-1,7.9465944E-1,6.635347E-1,4.3397075E-1,5.6078196E-1,6.35344E-1,1.7097998E-1,-7.021785E-2,3.1788015E-1,4.8140082E-1,5.533526E-1,4.3771055E-1,1.13358974E-1,1.47758E-1,5.389196E-1,4.2348182E-1,1.2658341E-1,6.0324997E-1,1.752441E-1,2.6810098E-1,6.689359E-1],"categories":[],"categories_nodes":[],"categories_segments":[],"categories_sizes":[],"default_left":[1,1,1,1,1,1,0,1,1,0,1,0,0,1,1,1,1,1,1,0,0,1,1,1,1,1,1,1,1,0,0,1,1,0,1,0,0,1,1,0,1,1,0,1,0,0,1,0,0,0,0,0,0,0,0,0,0,0,0,0,0,0,0,0,0],"id":23,"left_children":[1,3,5,7,9,11,-1,13,15,-1,17,-1,-1,19,21,23,25,27,29,-1,-1,31,33,35,37,39,41,43,45,-1,-1,47,49,-1,51,-1,-1,53,55,-1,57,59,-1,61,-1,-1,63,-1,-1,-1,-1,-1,-1,-1,-1,-1,-1,-1,-1,-1,-1,-1,-1,-1,-1],"loss_changes":[3.4678955E0,1.9869385E0,1.1882439E0,1.4106445E0,6.0289E-1,2.8299713E-1,0E0,1.8336029E0,1.3692322E0,0E0,7.5942993E-1,0E0,0E0,1.2190628E-1,4.0940857E-1,3.349228E-1,6.22345E-1,3.8900757E-1,5.189705E-2,0E0,0E0,1.6338348E-1,2.9736328E-1,4.9362183E-2,3.4952545E-1,1.1778259E-1,1.3141632E-1,6.74057E-3,9.340668E-2,0E0,0E0,1.1803818E-1,2.6618958E-2,0E0,1.3017452E-1,0E0,0E0,6.0958862E-2,1.8486023E-2,0E0,1.5411377E-2,8.2118034E-2,0E0,1.6384125E-3,0E0,0E0,1.9015503E-1,0E0,0E0,0E0,0E0,0E0,0E0,0E0,0E0,0E0,0E0,0E0,0E0,0E0,0E0,0E0,0E0,0E0,0E0],"parents":[2147483647,0,0,1,1,2,2,3,3,4,4,5,5,7,7,8,8,10,10,13,13,14,14,15,15,16,16,17,17,18,18,21,21,22,22,23,23,24,24,25,25,26,26,27,27,28,28,31,31,32,32,34,34,37,37,38,38,40,40,41,41,43,43,46,46],"right_children":[2,4,6,8,10,12,-1,14,16,-1,18,-1,-1,20,22,24,26,28,30,-1,-1,32,34,36,38,40,42,44,46,-1,-1,48,50,-1,52,-1,-1,54,56,-1,58,60,-1,62,-1,-1,64,-1,-1,-1,-1,-1,-1,-1,-1,-1,-1,-1,-1,-1,-1,-1,-1,-1,-1],"split_conditions":[2.75E0,1.65E1,4.4E0,1.5E0,5E-1,9.585E1,1.1221975E-1,2.5E-1,9.1432285E-1,4.7063973E-2,9.5E0,7.9627536E-2,6.0927134E-2,1.55E0,5.5E-1,3.689412E-2,1.25E1,3.5000002E-1,1.18176684E-1,5.028239E-2,1.4879529E-2,1.15E1,2.9E0,4.5E0,6.5E0,2.5E0,1.25E0,3.1E1,7.1E0,1.1570597E-2,5.1419068E-2,2.5E0,2.3E0,6.607234E-2,4E0,8.269119E-3,4.17414E-2,8.5E-1,9.0791345E-1,5.9318762E-2,5E-2,3.79E1,5.39501E-2,3.88E1,4.4022467E-2,7.946595E-2,7.3999996E0,4.3397076E-2,5.6078196E-2,6.35344E-2,1.7097998E-2,-7.021785E-3,3.1788018E-2,4.8140083E-2,5.533526E-2,4.3771055E-2,1.1335897E-2,1.47758005E-2,5.3891964E-2,4.2348184E-2,1.2658342E-2,6.0324997E-2,1.752441E-2,2.6810098E-2,6.689359E-2],"split_indices":[5,12,5,1,0,7,0,8,15,0,1,0,0,5,5,15,1,5,15,0,0,12,8,12,1,10,5,0,7,0,0,0,8,0,8,0,0,8,15,0,5,7,0,9,0,0,7,0,0,0,0,0,0,0,0,0,0,0,0,0,0,0,0,0,0],"split_type":[0,0,0,0,0,0,0,0,0,0,0,0,0,0,0,0,0,0,0,0,0,0,0,0,0,0,0,0,0,0,0,0,0,0,0,0,0,0,0,0,0,0,0,0,0,0,0,0,0,0,0,0,0,0,0,0,0,0,0,0,0,0,0,0,0],"sum_hessian":[2.423E3,2.326E3,9.7E1,1.923E3,4.03E2,8.7E1,1E1,7.07E2,1.216E3,3.9E1,3.64E2,3.8E1,4.9E1,2.45E2,4.62E2,5.17E2,6.99E2,3.03E2,6.1E1,2.43E2,2E0,2.34E2,2.28E2,1.31E2,3.86E2,5.95E2,1.04E2,9.1E1,2.12E2,1E0,6E1,1.48E2,8.6E1,2.26E2,2E0,1E0,1.3E2,2.52E2,1.34E2,2.37E2,3.58E2,7.2E1,3.2E1,7.6E1,1.5E1,4E1,1.72E2,3.1E1,1.17E2,8.5E1,1E0,1E0,1E0,1.31E2,1.21E2,1.33E2,1E0,1E0,3.57E2,7E1,2E0,7.5E1,1E0,3E0,1.69E2],"tree_param":{"num_deleted":"0","num_feature":"16","num_nodes":"65","size_leaf_vector":"0"}},{"base_weights":[5.0196064E-1,4.800561E-1,5.656053E-1,4.5671475E-1,5.2149296E-1,5.5027294E-1,8.0865115E-1,4.433399E-1,5.10205E-1,4.8657057E-1,5.7137144E-1,5.1631963E-1,6.0655147E-1,8.295808E-1,3.2282797E-1,4.5439088E-1,3.785462E-1,5.203983E-1,3.680348E-1,4.6066487E-1,5.404584E-1,5.518735E-1,7.1197015E-1,4.9680156E-1,6.0256624E-1,6.36982E-1,5.343664E-1,4.229548E-1,4.7884044E-1,3.872073E-1,2.741761E-1,5.3464776E-1,4.0392488E-1,3.778753E-1,1.0037327E-1,5.054787E-1,4.2958283E-1,5.519897E-1,3.641808E-1,5.565934E-1,2.876185E-1,2.718956E-1,5.0130826E-1,1.4996886E-1,6.0761005E-1,2.2784233E-1,5.451747E-1,3.44735E-1,4.3535095E-1,5.0446707E-1,4.4352707E-1,2.9213628E-1,1.1094332E-1,5.173063E-1,7.9894936E-1,2.4459583E-1,4.4975162E-1,5.1243544E-1,1.09731995E-1,7.236338E-2,4.336725E-1,1.4356399E-1,5.545122E-1,6.3506305E-1,5.3264976E-1,3.2979694E-1,-6.6706896E-2,5.9723014E-1,4.7774217E-1,4.409466E-1,3.1056726E-1,3.169544E-1,5.1472586E-1,3.9783165E-1,4.7257668E-1,4.1062763E-1,5.393879E-1,1.5109777E-1,8.610436E-1,1.8077672E-1,5.21006E-1,2.6940584E-2,1.376574E-1,3.6275727E-1,4.5807523E-1,3.6636114E-1,6.5889597E-1,5.3434056E-1,1.2007308E-1,1.2167629E-1,3.8870993E-1,1.5013146E-1,6.0294104E-1,4.9082422E-1,3.7859702E-1],"categories":[],"categories_nodes":[],"categories_segments":[],"categories_sizes":[],"default_left":[1,1,1,1,1,1,1,1,1,1,1,1,1,0,0,1,1,1,1,1,1,1,0,1,1,0,1,1,1,0,1,1,1,0,0,1,1,1,0,1,0,1,1,0,0,0,0,0,1,1,1,0,0,1,1,0,0,1,1,0,1,0,0,1,1,1,0,1,1,0,0,0,0,0,0,0,0,0,0,0,0,0,0,0,0,0,0,0,0,0,0,0,0,0,0],"id":24,"left_children":[1,3,5,7,9,11,13,15,17,19,21,23,25,-1,-1,27,29,31,33,35,37,39,-1,41,43,-1,45,47,49,-1,51,53,55,-1,-1,57,59,61,-1,63,-1,65,67,-1,-1,-1,-1,-1,69,71,73,-1,-1,75,77,-1,-1,79,81,-1,83,-1,-1,85,87,89,-1,91,93,-1,-1,-1,-1,-1,-1,-1,-1,-1,-1,-1,-1,-1,-1,-1,-1,-1,-1,-1,-1,-1,-1,-1,-1,-1,-1],"loss_changes":[2.9823608E0,1.4476013E0,1.7610779E0,5.7722473E-1,8.036957E-1,7.5691223E-1,6.773567E-2,4.7673035E-1,1.2439728E-1,2.703476E-1,2.924347E-1,2.999115E-1,1.0992432E-1,0E0,0E0,3.885193E-1,1.8585205E-2,1.1764145E-1,9.481907E-3,1.4221954E-1,3.2733917E-2,1.1929321E-1,0E0,1.6371918E-1,4.8130035E-2,0E0,9.775734E-2,1.844368E-1,1.6086578E-1,0E0,8.633137E-3,3.9337158E-1,7.9832554E-2,0E0,0E0,2.1907997E-1,2.0090103E-1,2.960205E-2,0E0,7.320404E-2,0E0,1.7884403E-1,3.679657E-1,0E0,0E0,0E0,0E0,0E0,6.8344116E-2,2.966118E-1,6.022644E-2,0E0,0E0,1.7425919E-1,2.3194838E-1,0E0,0E0,1.8437767E-1,3.2273792E-3,0E0,1.05522156E-1,0E0,0E0,5.3186417E-2,5.722046E-2,3.853035E-2,0E0,4.4805527E-2,1.2156677E-1,0E0,0E0,0E0,0E0,0E0,0E0,0E0,0E0,0E0,0E0,0E0,0E0,0E0,0E0,0E0,0E0,0E0,0E0,0E0,0E0,0E0,0E0,0E0,0E0,0E0,0E0],"parents":[2147483647,0,0,1,1,2,2,3,3,4,4,5,5,6,6,7,7,8,8,9,9,10,10,11,11,12,12,15,15,16,16,17,17,18,18,19,19,20,20,21,21,23,23,24,24,26,26,27,27,28,28,30,30,31,31,32,32,35,35,36,36,37,37,39,39,41,41,42,42,48,48,49,49,50,50,53,53,54,54,57,57,58,58,60,60,63,63,64,64,65,65,67,67,68,68],"right_children":[2,4,6,8,10,12,14,16,18,20,22,24,26,-1,-1,28,30,32,34,36,38,40,-1,42,44,-1,46,48,50,-1,52,54,56,-1,-1,58,60,62,-1,64,-1,66,68,-1,-1,-1,-1,-1,70,72,74,-1,-1,76,78,-1,-1,80,82,-1,84,-1,-1,86,88,90,-1,92,94,-1,-1,-1,-1,-1,-1,-1,-1,-1,-1,-1,-1,-1,-1,-1,-1,-1,-1,-1,-1,-1,-1,-1,-1,-1,-1],"split_conditions":[1.1500001E0,9.5E-1,3.65E0,8.35E1,7.05E1,7.55E1,8E0,9.5E0,2.5E-1,2.0485E3,9.15E1,6.3068113E0,3.5000002E-1,8.295808E-2,3.2282796E-2,6.78737E-2,3.5000002E-1,9.65E1,3.6225803E0,1.5E0,3.966669E0,5.5E-1,7.119702E-2,3.692183E-2,2.5E0,6.36982E-2,6E0,1.55E1,3.5E0,3.872073E-2,1.578E3,9.55E1,1.5E-1,3.778753E-2,1.0037327E-2,6.95E1,3.45E1,3.65E1,3.641808E-2,5E-1,2.8761849E-2,2.5E0,1.5E0,1.4996886E-2,6.0761005E-2,2.2784233E-2,5.4517474E-2,3.44735E-2,2.5E-1,4.05E1,5E-1,2.9213628E-2,1.1094332E-2,1.5E0,5E-1,2.4459584E-2,4.497516E-2,4E0,5E-1,7.2363378E-3,1.5001471E-1,1.4356399E-2,5.545122E-2,5E-2,1.95E1,5E-1,-6.6706897E-3,3.45E1,6.5E-1,4.4094663E-2,3.1056726E-2,3.169544E-2,5.1472586E-2,3.9783165E-2,4.725767E-2,4.1062765E-2,5.3938787E-2,1.5109777E-2,8.6104356E-2,1.8077672E-2,5.21006E-2,2.6940585E-3,1.376574E-2,3.6275726E-2,4.580752E-2,3.6636114E-2,6.58896E-2,5.3434055E-2,1.2007308E-2,1.2167629E-2,3.8870994E-2,1.5013146E-2,6.0294103E-2,4.9082424E-2,3.7859704E-2],"split_indices":[5,8,5,13,13,13,10,1,6,2,13,15,6,0,0,15,6,13,15,1,15,6,0,15,4,0,0,2,1,0,2,13,8,0,0,13,13,13,0,1,0,8,1,0,0,0,0,0,6,13,4,0,0,0,0,0,0,2,6,0,15,0,0,5,1,8,0,13,6,0,0,0,0,0,0,0,0,0,0,0,0,0,0,0,0,0,0,0,0,0,0,0,0,0,0],"split_type":[0,0,0,0,0,0,0,0,0,0,0,0,0,0,0,0,0,0,0,0,0,0,0,0,0,0,0,0,0,0,0,0,0,0,0,0,0,0,0,0,0,0,0,0,0,0,0,0,0,0,0,0,0,0,0,0,0,0,0,0,0,0,0,0,0,0,0,0,0,0,0,0,0,0,0,0,0,0,0,0,0,0,0,0,0,0,0,0,0,0,0,0,0,0,0],"sum_hessian":[2.333E3,1.742E3,5.91E2,1.122E3,6.2E2,5.59E2,3.2E1,9.05E2,2.17E2,3.71E2,2.49E2,3.55E2,2.04E2,3E1,2E0,7.68E2,1.37E2,2E2,1.7E1,2.57E2,1.14E2,2.23E2,2.6E1,2.95E2,6E1,1.38E2,6.6E1,3.44E2,4.24E2,1.24E2,1.3E1,1.75E2,2.5E1,1.6E1,1E0,9.9E1,1.58E2,1.05E2,9E0,2.18E2,5E0,7E0,2.88E2,1E0,5.9E1,3E0,6.3E1,5.1E1,2.93E2,2.38E2,1.86E2,1.1E1,2E0,1.67E2,8E0,7E0,1.8E1,9.7E1,2E0,2E0,1.56E2,1E0,1.04E2,4.5E1,1.73E2,6E0,1E0,5.2E1,2.36E2,2.78E2,1.5E1,1.4E1,2.24E2,7.8E1,1.08E2,3.2E1,1.35E2,1E0,7E0,3E0,9.4E1,1E0,1E0,4.4E1,1.12E2,5E0,4E1,1.72E2,1E0,2E0,4E0,1E0,5.1E1,2.05E2,3.1E1],"tree_param":{"num_deleted":"0","num_feature":"16","num_nodes":"95","size_leaf_vector":"0"}},{"base_weights":[4.5545053E-1,4.5026207E-1,7.202056E-1,4.3197155E-1,4.990189E-1,4.613697E-1,7.7358145E-1,3.7674958E-1,4.4812924E-1,5.1375294E-1,3.865298E-1,9.2505205E-1,6.2855095E-1,1.764288E-1,3.8315523E-1,4.3771967E-1,5.088489E-1,4.801906E-1,5.636622E-1,3.024366E-1,4.1466826E-1,2.2032006E-1,6.5992683E-1,1.9974972E-1,-6.337166E-2,3.937859E-1,3.1188202E-1,4.460664E-1,3.4544215E-1,5.2424455E-1,3.8308474E-1,2.4532637E-1,4.858698E-1,6.740974E-1,5.2010655E-1,1.2961078E-1,2.599767E-1,2.8937036E-1,4.0149692E-1,1.1835352E-1,3.1704938E-1,4.924125E-1,4.3424955E-1,3.48278E-1,3.518343E-2,9.212065E-2,5.2634335E-1,3.969927E-1,1.5339787E-1,5.4887056E-2,3.1910223E-1,4.873949E-1,1.576759E-1,4.112403E-1,7.0792973E-1,4.6429962E-1,5.8025587E-1,1.8619667E-1,-1.3324523E-1,2.8058568E-1,7.846594E-2,3.1163543E-1,1.4792919E-2,3.918347E-1,4.966884E-1,5.707072E-1,4.3184078E-1,3.8281736E-1,4.5116293E-1,4.8150778E-2,3.5090274E-1,5.3083724E-1,2.790677E-1,1.1601758E-1,4.0484786E-1,4.722947E-1,5.467192E-1,2.5864485E-1,6.302163E-1,7.302315E-1,3.6116743E-1,4.7843793E-1,3.0617705E-1,5.8562404E-1,9.687424E-2],"categories":[],"categories_nodes":[],"categories_segments":[],"categories_sizes":[],"default_left":[1,1,1,1,1,0,1,1,1,1,1,0,1,1,1,1,1,1,1,0,0,0,0,1,0,1,1,1,1,1,1,1,1,1,1,1,1,1,1,0,0,1,1,1,0,0,1,1,0,0,0,1,0,1,1,1,1,0,0,0,0,0,0,0,0,0,0,0,0,0,0,0,0,0,0,0,0,0,0,0,0,0,0,0,0],"id":25,"left_children":[1,3,5,7,9,-1,11,13,15,17,19,-1,21,23,25,27,29,31,33,-1,-1,-1,-1,35,-1,37,39,41,43,45,47,49,51,53,55,57,59,61,63,-1,-1,65,67,69,-1,-1,71,73,-1,-1,-1,75,-1,77,79,81,83,-1,-1,-1,-1,-1,-1,-1,-1,-1,-1,-1,-1,-1,-1,-1,-1,-1,-1,-1,-1,-1,-1,-1,-1,-1,-1,-1,-1],"loss_changes":[2.9396057E0,1.8649597E0,2.5097847E-1,1.3515625E0,8.455963E-1,0E0,1.8743324E-1,4.3540573E-1,6.071472E-1,6.573334E-1,5.67894E-2,0E0,1.235857E-1,9.095171E-2,1.643486E-1,7.147064E-1,1.5930939E-1,3.3164215E-1,6.931915E-1,0E0,0E0,0E0,0E0,2.1219552E-2,0E0,1.4630127E-1,1.6478062E-2,3.5081482E-1,7.3970795E-2,9.9342346E-2,1.576972E-2,1.22983634E-1,8.782196E-2,2.246685E-1,2.6766968E-1,1.4380135E-1,4.2808056E-4,1.5434074E-1,8.22258E-2,0E0,0E0,7.1152115E-1,5.4930115E-1,5.9516907E-2,0E0,0E0,3.1879425E-2,1.5866756E-3,0E0,0E0,0E0,3.4721375E-2,0E0,1.3773036E-1,1.2293434E-1,5.0245285E-2,1.3269234E-1,0E0,0E0,0E0,0E0,0E0,0E0,0E0,0E0,0E0,0E0,0E0,0E0,0E0,0E0,0E0,0E0,0E0,0E0,0E0,0E0,0E0,0E0,0E0,0E0,0E0,0E0,0E0,0E0],"parents":[2147483647,0,0,1,1,2,2,3,3,4,4,6,6,7,7,8,8,9,9,10,10,12,12,13,13,14,14,15,15,16,16,17,17,18,18,23,23,25,25,26,26,27,27,28,28,29,29,30,30,31,31,32,32,33,33,34,34,35,35,36,36,37,37,38,38,41,41,42,42,43,43,46,46,47,47,51,51,53,53,54,54,55,55,56,56],"right_children":[2,4,6,8,10,-1,12,14,16,18,20,-1,22,24,26,28,30,32,34,-1,-1,-1,-1,36,-1,38,40,42,44,46,48,50,52,54,56,58,60,62,64,-1,-1,66,68,70,-1,-1,72,74,-1,-1,-1,76,-1,78,80,82,84,-1,-1,-1,-1,-1,-1,-1,-1,-1,-1,-1,-1,-1,-1,-1,-1,-1,-1,-1,-1,-1,-1,-1,-1,-1,-1,-1,-1],"split_conditions":[3.45E0,1.45E1,7.2E1,3.5E0,1.05E1,4.613697E-2,6.5E-1,3.65E1,6.5E0,7.5E-1,7.75E1,9.250521E-2,1.35E1,1.65E0,6.5E0,1.15E1,7.5E-1,5.8E1,1.5E0,3.024366E-2,4.146683E-2,2.2032006E-2,6.599268E-2,5.5E-1,-6.337166E-3,6.5E0,9.5E-1,9.5E0,1.5E0,3.85E1,1.5E0,3.5E0,7.5E-1,5E-1,3.5E0,1.5E0,1.15E0,2.5E0,5E-1,1.18353525E-2,3.170494E-2,2.5E0,6.8500004E0,3.7E1,3.518343E-3,9.212065E-3,1.1705E2,1.55E0,1.5339787E-2,5.488706E-3,3.1910222E-2,9.25E1,1.5767591E-2,1.9621038E-1,9.595E1,4E-1,3.35E0,1.8619668E-2,-1.3324523E-2,2.8058568E-2,7.846594E-3,3.1163543E-2,1.4792919E-3,3.918347E-2,4.966884E-2,5.707072E-2,4.318408E-2,3.8281735E-2,4.5116294E-2,4.815078E-3,3.5090275E-2,5.3083725E-2,2.790677E-2,1.1601758E-2,4.0484786E-2,4.722947E-2,5.467192E-2,2.5864486E-2,6.302163E-2,7.3023155E-2,3.6116745E-2,4.7843795E-2,3.0617705E-2,5.8562405E-2,9.687424E-3],"split_indices":[5,12,13,0,1,0,6,13,3,5,13,0,3,5,1,1,6,13,1,0,0,0,0,5,0,12,9,0,11,13,11,0,6,0,3,0,5,0,3,0,0,1,7,13,0,0,7,5,0,0,0,13,0,14,7,6,5,0,0,0,0,0,0,0,0,0,0,0,0,0,0,0,0,0,0,0,0,0,0,0,0,0,0,0,0],"split_type":[0,0,0,0,0,0,0,0,0,0,0,0,0,0,0,0,0,0,0,0,0,0,0,0,0,0,0,0,0,0,0,0,0,0,0,0,0,0,0,0,0,0,0,0,0,0,0,0,0,0,0,0,0,0,0,0,0,0,0,0,0,0,0,0,0,0,0,0,0,0,0,0,0,0,0,0,0,0,0,0,0,0,0,0,0],"sum_hessian":[2.375E3,2.332E3,4.3E1,1.703E3,6.29E2,9E0,3.4E1,3.91E2,1.312E3,5.53E2,7.6E1,1.4E1,2E1,1.3E1,3.78E2,1.127E3,1.85E2,3.37E2,2.16E2,2.2E1,5.4E1,2E0,1.8E1,1.2E1,1E0,3.25E2,5.3E1,1.03E3,9.7E1,1.62E2,2.3E1,9E0,3.28E2,5.7E1,1.59E2,7E0,5E0,2.5E1,3E2,2E0,5.1E1,2.01E2,8.29E2,9.6E1,1E0,1E0,1.61E2,2.1E1,2E0,3E0,6E0,3.26E2,2E0,8E0,4.9E1,8.7E1,7.2E1,6E0,1E0,4E0,1E0,2.3E1,2E0,2.77E2,2.3E1,8.4E1,1.17E2,2.11E2,6.18E2,1E0,9.5E1,1.57E2,4E0,1E0,2E1,2.67E2,5.9E1,6E0,2E0,4.5E1,4E0,7.8E1,9E0,7.1E1,1E0],"tree_param":{"num_deleted":"0","num_feature":"16","num_nodes":"85","size_leaf_vector":"0"}},{"base_weights":[4.1147104E-1,3.9281663E-1,4.7424427E-1,4.1617647E-1,3.5326192E-1,4.5944682E-1,6.9202185E-1,2.937315E-1,4.2603278E-1,3.244344E-1,3.751849E-1,4.2082998E-1,4.98395E-1,5.7505894E-1,9.2703164E-1,2.9764056E-1,1.3723123E-1,4.047044E-1,4.638749E-1,1.8997826E-1,3.3031082E-1,4.0024793E-1,3.200119E-1,4.4970873E-1,3.6961475E-1,5.555254E-1,4.678599E-1,1.3629413E-1,5.8820987E-1,1.0457238E0,3.410727E-1,1.5500136E-1,3.0277088E-1,4.1111937E-1,2.8550595E-1,7.02005E-1,4.46901E-1,2.1573742E-1,6.520617E-2,3.3164173E-1,9.3324184E-2,2.0482758E-1,4.0568206E-1,3.2893908E-1,1.6939375E-1,3.4860915E-1,4.711355E-1,4.2752948E-1,3.1343526E-1,3.1975135E-1,5.6698036E-1,4.7247013E-1,1.6302669E-1,3.0602878E-1,1.16055645E-1,3.7115088E-1,4.296465E-1,3.0587065E-1,8.9924715E-2,8.5546684E-1,4.1695794E-1,4.2810565E-1,5.1990074E-1,1.3368726E-1,3.038702E-1,1.6249657E-2,7.6108456E-2,3.019298E-1,3.519035E-1,9.544444E-2,2.4361174E-1,4.1062158E-1,2.4607149E-1,2.0786439E-1,3.3598292E-1,4.765892E-2,1.9736671E-1,3.6750388E-1,2.0548122E-1,4.7377372E-1,6.540108E-2,3.1808782E-1,3.3424377E-2,3.458274E-1,9.4685555E-2,6.3462645E-1,4.5772383E-1,2.544198E-1,3.26546E-1,3.8504454E-1,1.6532686E-2,4.0461817E-1,4.9613258E-1,3.1999192E-1,5.328703E-2,1.1996905E-2,1.3787763E-1,8.82368E-1,2.528758E-1,5.436251E-1,4.1633064E-1,1.8938605E-1,5.271568E-1,3.0622783E-1,9.7506285E-2,3.58655E-1,2.2539116E-1,2.6277456E-1,7.389879E-2,3.4344438E-1,4.2818376E-1,2.6068652E-1,5.7268143E-2,2.2418728E-1,8.687687E-2,2.5950965E-1,4.1576463E-1,1.3758659E-2,2.41074E-1,4.762082E-1,8.108115E-2,1.8975353E-1,3.304336E-1,2.5279155E-1,6.913907E-1,4.3775752E-1,5.384146E-1],"categories":[],"categories_nodes":[],"categories_segments":[],"categories_sizes":[],"default_left":[1,1,1,1,1,1,1,1,1,1,1,1,1,1,1,1,0,1,1,1,1,1,1,1,1,1,1,0,0,0,0,0,1,1,1,1,1,1,1,1,0,1,1,1,1,1,1,0,1,1,0,1,0,1,0,1,1,1,1,1,0,1,1,0,0,0,0,1,1,0,1,1,1,0,0,0,1,1,1,1,0,1,0,0,0,1,1,0,0,0,0,0,0,0,0,0,0,0,0,0,0,0,0,0,0,0,0,0,0,0,0,0,0,0,0,0,0,0,0,0,0,0,0,0,0,0,0],"id":26,"left_children":[1,3,5,7,9,11,13,15,17,19,21,23,25,27,29,31,-1,33,35,37,39,41,43,45,47,49,51,-1,-1,-1,-1,-1,53,55,57,59,61,63,65,67,-1,69,71,73,75,77,79,-1,81,83,-1,85,-1,87,-1,89,91,93,95,97,-1,99,101,-1,-1,-1,-1,103,105,-1,107,109,111,-1,-1,-1,113,115,117,119,-1,121,-1,-1,-1,123,125,-1,-1,-1,-1,-1,-1,-1,-1,-1,-1,-1,-1,-1,-1,-1,-1,-1,-1,-1,-1,-1,-1,-1,-1,-1,-1,-1,-1,-1,-1,-1,-1,-1,-1,-1,-1,-1,-1,-1,-1],"loss_changes":[2.5679016E0,1.5337219E0,1.4028931E0,1.2482605E0,3.0929565E-1,5.467987E-1,3.4649944E-1,1.2989998E-2,6.605377E-1,1.7586517E-1,3.9876175E-1,2.168541E-1,1.674881E-1,5.83148E-2,2.692709E-1,1.5271664E-2,0E0,4.025879E-1,1.1898956E0,3.414291E-2,5.9890747E-2,1.9088745E-1,1.110096E-1,1.8452072E-1,1.8810654E-1,3.476906E-2,1.5626526E-1,0E0,0E0,0E0,0E0,0E0,1.3755798E-2,3.166809E-1,1.2384701E-1,6.4941406E-1,2.5765228E-1,4.6152174E-2,8.9821406E-4,6.59256E-2,0E0,1.4929593E-2,9.605789E-2,2.9088974E-2,2.1241248E-2,1.10247135E-2,1.08169556E-1,0E0,5.9717655E-2,2.4681091E-3,0E0,9.928894E-2,0E0,5.7172775E-4,0E0,1.0332184E0,5.19783E-1,1.04219675E-1,1.703022E-2,3.8166046E-3,0E0,1.5998077E-1,6.084633E-2,0E0,0E0,0E0,0E0,7.821083E-2,5.9244156E-2,0E0,9.435415E-5,1.3726807E-1,1.26645565E-2,0E0,0E0,0E0,1.2671053E-3,3.282571E-2,3.7626773E-2,8.4711075E-2,0E0,2.1271706E-2,0E0,0E0,0E0,6.364298E-2,1.0799408E-2,0E0,0E0,0E0,0E0,0E0,0E0,0E0,0E0,0E0,0E0,0E0,0E0,0E0,0E0,0E0,0E0,0E0,0E0,0E0,0E0,0E0,0E0,0E0,0E0,0E0,0E0,0E0,0E0,0E0,0E0,0E0,0E0,0E0,0E0,0E0,0E0,0E0,0E0,0E0,0E0],"parents":[2147483647,0,0,1,1,2,2,3,3,4,4,5,5,6,6,7,7,8,8,9,9,10,10,11,11,12,12,13,13,14,14,15,15,17,17,18,18,19,19,20,20,21,21,22,22,23,23,24,24,25,25,26,26,32,32,33,33,34,34,35,35,36,36,37,37,38,38,39,39,41,41,42,42,43,43,44,44,45,45,46,46,48,48,49,49,51,51,53,53,55,55,56,56,57,57,58,58,59,59,61,61,62,62,67,67,68,68,70,70,71,71,72,72,76,76,77,77,78,78,79,79,81,81,85,85,86,86],"right_children":[2,4,6,8,10,12,14,16,18,20,22,24,26,28,30,32,-1,34,36,38,40,42,44,46,48,50,52,-1,-1,-1,-1,-1,54,56,58,60,62,64,66,68,-1,70,72,74,76,78,80,-1,82,84,-1,86,-1,88,-1,90,92,94,96,98,-1,100,102,-1,-1,-1,-1,104,106,-1,108,110,112,-1,-1,-1,114,116,118,120,-1,122,-1,-1,-1,124,126,-1,-1,-1,-1,-1,-1,-1,-1,-1,-1,-1,-1,-1,-1,-1,-1,-1,-1,-1,-1,-1,-1,-1,-1,-1,-1,-1,-1,-1,-1,-1,-1,-1,-1,-1,-1,-1,-1,-1,-1],"split_conditions":[3.5E0,3.5E0,1.15E1,1.8E1,1.05E1,7.25E1,1.6393646E1,1.2996313E-1,5E-1,3.65E1,9.5E0,6.5E0,2.5E0,6.25E1,2.97E1,6.5E0,1.3723123E-2,2.5E-1,3.1E0,1.63E1,2.15E1,5.7E1,3.8682647E0,5.1E1,2.5E-1,5E-1,3.35E1,1.3629413E-2,5.882099E-2,1.0457238E-1,3.410727E-2,1.5500136E-2,1.5E0,8.5E-1,4.0128905E-1,1.5E0,8.65E1,7.5E0,8.205E2,5E-1,9.332418E-3,5E-1,3.5000002E-1,3.045E2,1.2E1,9.587673E0,1.15E1,4.2752948E-2,1.5E0,1.5E0,5.6698035E-2,2.4154325E0,1.630267E-2,3.5E0,1.16055645E-2,9.35E1,1.45E1,5E-1,4.5E-1,1.3370827E0,4.1695796E-2,5E-1,4.09E2,1.3368726E-2,3.038702E-2,1.6249657E-3,7.610846E-3,1.5E0,2.344E3,9.544444E-3,2.45E1,4.795E2,6.5E-1,2.078644E-2,3.3598293E-2,4.765892E-3,5.6498127E0,4.35E1,8.5E0,1.5E0,6.540108E-3,1.0549999E1,3.3424378E-3,3.458274E-2,9.468555E-3,1.185E1,9.15E1,2.544198E-2,3.2654602E-2,3.8504455E-2,1.6532686E-3,4.046182E-2,4.961326E-2,3.1999193E-2,5.328703E-3,1.1996905E-3,1.3787763E-2,8.82368E-2,2.5287582E-2,5.4362513E-2,4.1633066E-2,1.8938607E-2,5.2715678E-2,3.0622784E-2,9.750629E-3,3.58655E-2,2.2539116E-2,2.6277456E-2,7.3898793E-3,3.434444E-2,4.281838E-2,2.6068652E-2,5.7268143E-3,2.2418728E-2,8.687687E-3,2.5950966E-2,4.1576464E-2,1.375866E-3,2.41074E-2,4.762082E-2,8.108116E-3,1.8975353E-2,3.3043362E-2,2.5279155E-2,6.913907E-2,4.3775752E-2,5.384146E-2],"split_indices":[3,1,4,2,12,13,14,14,3,13,1,1,1,13,9,12,0,6,9,9,1,13,14,13,6,4,0,0,0,0,0,0,9,9,14,1,13,0,2,4,0,10,6,2,1,14,10,0,11,1,0,14,0,2,0,13,12,11,6,14,0,10,2,0,0,0,0,11,2,0,0,2,6,0,0,0,14,13,3,11,0,9,0,0,0,9,13,0,0,0,0,0,0,0,0,0,0,0,0,0,0,0,0,0,0,0,0,0,0,0,0,0,0,0,0,0,0,0,0,0,0,0,0,0,0,0,0],"split_type":[0,0,0,0,0,0,0,0,0,0,0,0,0,0,0,0,0,0,0,0,0,0,0,0,0,0,0,0,0,0,0,0,0,0,0,0,0,0,0,0,0,0,0,0,0,0,0,0,0,0,0,0,0,0,0,0,0,0,0,0,0,0,0,0,0,0,0,0,0,0,0,0,0,0,0,0,0,0,0,0,0,0,0,0,0,0,0,0,0,0,0,0,0,0,0,0,0,0,0,0,0,0,0,0,0,0,0,0,0,0,0,0,0,0,0,0,0,0,0,0,0,0,0,0,0,0,0],"sum_hessian":[2.351E3,1.818E3,5.33E2,1.137E3,6.81E2,5.02E2,3.1E1,8.7E1,1.05E3,3.01E2,3.8E2,2.58E2,2.44E2,2.3E1,8E0,8.4E1,3E0,6.79E2,3.71E2,1.4E1,2.87E2,2.57E2,1.23E2,1.6E2,9.8E1,7.9E1,1.65E2,1E0,2.2E1,6E0,2E0,4E0,8E1,6.42E2,3.7E1,2.2E1,3.49E2,1.1E1,3E0,2.85E2,2E0,8E0,2.49E2,1.15E2,8E0,3.1E1,1.29E2,4.5E1,5.3E1,5E0,7.4E1,1.62E2,3E0,7.8E1,2E0,2.1E2,4.32E2,3.3E1,4E0,1.3E1,9E0,2.83E2,6.6E1,7E0,4E0,1E0,2E0,1.22E2,1.63E2,3E0,5E0,2.4E2,9E0,8E0,1.07E2,2E0,6E0,2.6E1,5E0,1.28E2,1E0,5.2E1,1E0,4E0,1E0,1E1,1.52E2,2.6E1,5.2E1,2.02E2,8E0,3.19E2,1.13E2,3.1E1,2E0,2E0,2E0,1.2E1,1E0,2.2E1,2.61E2,2E0,6.4E1,1.19E2,3E0,1.53E2,1E1,4E0,1E0,5.4E1,1.86E2,8E0,1E0,4E0,2E0,1E1,1.6E1,1E0,4E0,1.27E2,1E0,6E0,4.6E1,2E0,8E0,1.27E2,2.5E1],"tree_param":{"num_deleted":"0","num_feature":"16","num_nodes":"127","size_leaf_vector":"0"}},{"base_weights":[3.7269688E-1,3.6935562E-1,7.638817E-1,3.3653346E-1,3.9067248E-1,5.04131E-1,9.0696114E-1,3.527685E-1,2.932988E-1,3.7430227E-1,4.5627946E-1,2.2658698E-1,3.5937697E-1,2.8475255E-1,4.225187E-1,3.4909663E-1,4.1521862E-1,4.669566E-1,3.3524433E-1,2.3765713E-1,-8.0434084E-2,3.1985953E-1,3.7931672E-1,2.927981E-1,2.144531E-1,5.24134E-1,2.4602713E-1,3.0055004E-1,3.609586E-1,4.3638912E-1,3.4348527E-1,1.9525671E-1,4.7055152E-1,8.144768E-2,2.6097712E-1,3.4977302E-1,2.5651857E-1,3.8272315E-1,1.5774792E-1,1.3063459E-1,2.9521877E-1,2.4378987E-1,1.0697037E-1,9.6895374E-2,2.8630075E-1,3.0229428E-1,2.4688482E-2,3.7333626E-1,2.8782076E-1,5.1239574E-1,4.132171E-1,3.519268E-1,2.3063055E-1,3.5289338E-1,4.8101038E-1,1.951747E-1,-2.42095E-2,2.9049823E-1,1.4348173E-1,3.7355158E-1,2.981551E-1,1.2099683E-1,2.7826053E-1,4.4238076E-1,3.6866462E-1,3.879242E-2,2.6700532E-1,3.04815E-1,2.3743188E-1,5.742812E-2,2.7019286E-1,1.4892253E-1,2.7787566E-2,2.6879752E-1,3.205559E-1,3.34286E-1,4.010889E-1,2.9235497E-1,6.492265E-2,3.8465717E-1,5.8959955E-1,4.0462804E-1,5.669536E-1,9.675678E-2,2.5200438E-1,4.006907E-1,9.112549E-2,7.96914E-1,4.7168672E-1],"categories":[],"categories_nodes":[],"categories_segments":[],"categories_sizes":[],"default_left":[1,1,1,1,1,0,0,1,1,1,1,1,1,1,1,1,1,1,0,1,0,1,1,1,1,0,1,1,1,1,1,0,1,1,1,1,1,1,1,0,1,1,1,0,0,1,0,1,1,1,1,0,1,1,1,0,0,0,0,0,0,0,0,0,0,0,0,0,0,0,0,0,0,0,0,0,0,0,0,0,0,0,0,0,0,0,0,0,0],"id":27,"left_children":[1,3,5,7,9,-1,-1,11,13,15,17,19,21,23,25,27,29,31,-1,33,-1,35,37,39,41,-1,43,45,47,49,51,-1,53,55,57,59,61,63,65,-1,67,69,71,-1,-1,73,-1,75,77,79,81,-1,83,85,87,-1,-1,-1,-1,-1,-1,-1,-1,-1,-1,-1,-1,-1,-1,-1,-1,-1,-1,-1,-1,-1,-1,-1,-1,-1,-1,-1,-1,-1,-1,-1,-1,-1,-1],"loss_changes":[2.7946472E0,1.5029602E0,2.4890709E-1,5.472107E-1,1.3435516E0,0E0,0E0,4.7641754E-1,1.6571236E-1,1.0245667E0,2.0142365E-1,1.4147139E-1,3.782425E-1,7.6345444E-2,1.2212801E-1,2.9922485E-1,4.9855804E-1,1.5425873E-1,0E0,1.0624218E-1,0E0,3.2522583E-1,2.536049E-1,4.7008514E-2,6.536436E-2,0E0,1.430136E-2,6.2307358E-2,4.0312195E-1,3.6242676E-1,1.600647E-2,0E0,1.3543701E-1,7.6821536E-2,6.2376738E-2,6.782341E-2,1.8437338E-1,1.7994308E-1,9.361635E-2,0E0,4.629898E-2,9.2734575E-2,2.2436924E-2,0E0,0E0,1.9207001E-3,0E0,3.8503265E-1,6.7937374E-2,4.8326492E-1,1.07307434E-1,0E0,4.230857E-3,2.637701E-1,2.8681564E-1,0E0,0E0,0E0,0E0,0E0,0E0,0E0,0E0,0E0,0E0,0E0,0E0,0E0,0E0,0E0,0E0,0E0,0E0,0E0,0E0,0E0,0E0,0E0,0E0,0E0,0E0,0E0,0E0,0E0,0E0,0E0,0E0,0E0,0E0],"parents":[2147483647,0,0,1,1,2,2,3,3,4,4,7,7,8,8,9,9,10,10,11,11,12,12,13,13,14,14,15,15,16,16,17,17,19,19,21,21,22,22,23,23,24,24,26,26,27,27,28,28,29,29,30,30,32,32,33,33,34,34,35,35,36,36,37,37,38,38,40,40,41,41,42,42,45,45,47,47,48,48,49,49,50,50,52,52,53,53,54,54],"right_children":[2,4,6,8,10,-1,-1,12,14,16,18,20,22,24,26,28,30,32,-1,34,-1,36,38,40,42,-1,44,46,48,50,52,-1,54,56,58,60,62,64,66,-1,68,70,72,-1,-1,74,-1,76,78,80,82,-1,84,86,88,-1,-1,-1,-1,-1,-1,-1,-1,-1,-1,-1,-1,-1,-1,-1,-1,-1,-1,-1,-1,-1,-1,-1,-1,-1,-1,-1,-1,-1,-1,-1,-1,-1,-1],"split_conditions":[1.2087008E1,6.55E1,1.25E1,5.5E0,1.1500001E0,5.0413102E-2,9.069612E-2,3.65E1,5.5E0,1.5E0,8.5E0,2.65E0,6.42969E-2,5E-1,2.3E1,1.05E1,1.05E1,7.5E0,3.3524435E-2,3E-1,-8.043408E-3,1.5E0,1.5E0,3.65E1,1.05E1,5.24134E-2,6.5E0,5.714327E0,7.5E0,1.75E1,2.15E1,1.9525671E-2,5.9640817E-2,1.5E0,2.45E1,7.5E0,6.5E0,7.9E0,1.15E0,1.306346E-2,1.35E1,6.5E0,7E0,9.689538E-3,2.8630076E-2,3.1678397E-2,2.4688484E-3,4.3328837E-2,3.145E1,1.5208523E0,1.25E1,3.519268E-2,4.5E0,1.16E1,4.55E0,1.951747E-2,-2.42095E-3,2.9049823E-2,1.43481735E-2,3.735516E-2,2.981551E-2,1.2099683E-2,2.7826054E-2,4.4238076E-2,3.6866464E-2,3.879242E-3,2.6700532E-2,3.04815E-2,2.3743188E-2,5.742812E-3,2.7019287E-2,1.4892253E-2,2.7787567E-3,2.6879752E-2,3.205559E-2,3.3428602E-2,4.010889E-2,2.9235497E-2,6.4922655E-3,3.846572E-2,5.8959957E-2,4.0462803E-2,5.669536E-2,9.675678E-3,2.520044E-2,4.006907E-2,9.112549E-3,7.96914E-2,4.7168672E-2],"split_indices":[15,13,3,1,8,0,0,13,4,3,1,8,15,11,0,12,1,12,0,8,0,1,11,13,1,0,4,15,1,0,0,0,14,0,0,0,12,9,8,0,1,0,0,0,0,14,0,15,9,15,4,0,3,9,9,0,0,0,0,0,0,0,0,0,0,0,0,0,0,0,0,0,0,0,0,0,0,0,0,0,0,0,0,0,0,0,0,0,0],"split_type":[0,0,0,0,0,0,0,0,0,0,0,0,0,0,0,0,0,0,0,0,0,0,0,0,0,0,0,0,0,0,0,0,0,0,0,0,0,0,0,0,0,0,0,0,0,0,0,0,0,0,0,0,0,0,0,0,0,0,0,0,0,0,0,0,0,0,0,0,0,0,0,0,0,0,0,0,0,0,0,0,0,0,0,0,0,0,0,0,0],"sum_hessian":[2.353E3,2.335E3,1.8E1,9.26E2,1.409E3,8E0,1E1,6.68E2,2.58E2,1.133E3,2.76E2,3.5E1,6.33E2,2.45E2,1.3E1,7.07E2,4.26E2,2.51E2,2.5E1,3.4E1,1E0,2.18E2,4.15E2,2.17E2,2.8E1,7E0,6E0,1.44E2,5.63E2,3.25E2,1.01E2,4E0,2.47E2,5E0,2.9E1,1.45E2,7.3E1,4.08E2,7E0,4E0,2.13E2,2.1E1,7E0,2E0,4E0,1.43E2,1E0,4.78E2,8.5E1,7.1E1,2.54E2,9.2E1,9E0,2.3E1,2.24E2,2E0,3E0,2.2E1,7E0,9.5E1,5E1,1.1E1,6.2E1,7.2E1,3.36E2,4E0,3E0,1.79E2,3.4E1,3E0,1.8E1,4E0,3E0,5.6E1,8.7E1,2.04E2,2.74E2,8.3E1,2E0,2.9E1,4.2E1,2.44E2,1E1,2E0,7E0,1.9E1,4E0,4E0,2.2E2],"tree_param":{"num_deleted":"0","num_feature":"16","num_nodes":"89","size_leaf_vector":"0"}},{"base_weights":[3.406047E-1,3.3689862E-1,5.810749E-1,3.6101604E-1,3.1374246E-1,4.6574298E-1,7.3155385E-1,3.246589E-1,4.1297174E-1,2.757383E-1,3.3002472E-1,5.099727E-1,2.6280156E-1,2.4403326E-1,3.3738548E-1,3.7793517E-1,4.6021822E-1,2.778239E-1,2.0664811E-2,3.438553E-1,2.8594068E-1,2.296303E-1,5.1069224E-1,3.848192E-1,2.9549658E-1,3.9369568E-1,2.994607E-1,4.2808953E-1,5.514887E-1,2.7160975E-1,4.1066948E-1,-6.752944E-2,7.257271E-2,3.010269E-1,3.562955E-1,2.5442016E-1,3.099904E-1,2.3547906E-1,1.0752646E-1,2.8630665E-1,4.1687015E-1,2.4928775E-1,3.2462195E-1,2.84776E-1,4.0682524E-1,-1.20478E-1,3.198938E-1,1.17859244E-1,4.338137E-1,7.721558E-1,4.687435E-1,2.0537865E-1,2.8089076E-1,4.246948E-1,1.14170074E-1,3.1590948E-1,2.3562673E-1,3.8565192E-1,3.3010945E-1,4.0548563E-2,2.563041E-1,1.761229E-1,3.201754E-1,1.9660528E-1,2.650083E-1,2.0748775E-3,1.5973353E-1,3.023383E-1,-4.5784354E-2,4.4522277E-1,3.5384867E-1,2.2665237E-1,3.0915236E-1,2.831496E-1,3.5932726E-1,1.4479065E-1,3.1787702E-1,3.8226935E-1,4.9461734E-1,1.6116269E-1,3.3495316E-1,1.6910172E-1,-1.7934084E-2,4.656722E-1,3.522727E-1,2.183063E-1,8.0571014E-1,4.8060012E-1,1.7812078E-1,2.2914511E-1,1.4649495E-1,2.87787E-1,2.007589E-1,4.639352E-1,2.2042012E-1,3.1889853E-1,9.702269E-2,1.6844381E-1,2.8104538E-1,3.481723E-1,4.3413252E-1,3.0063096E-1,3.5207337E-1,2.5984207E-1,1.13507986E-1,3.3669555E-1,2.1136856E-1],"categories":[],"categories_nodes":[],"categories_segments":[],"categories_sizes":[],"default_left":[1,1,1,1,1,1,0,1,1,1,1,0,0,1,1,1,1,1,1,1,1,1,0,1,1,1,1,1,1,1,1,0,0,1,1,1,1,1,1,1,1,1,1,1,1,0,1,1,1,1,1,1,1,1,0,1,1,1,1,0,1,0,1,0,0,0,0,0,0,0,0,0,0,0,0,0,0,0,0,0,0,0,0,0,0,0,0,0,0,0,0,0,0,0,0,0,0,0,0,0,0,0,0,0,0,0,0],"id":28,"left_children":[1,3,5,7,9,11,-1,13,15,17,19,-1,-1,21,23,25,27,29,31,33,35,37,-1,39,41,43,45,47,49,51,53,-1,-1,55,57,59,61,63,65,67,69,71,73,75,77,-1,79,81,83,85,87,89,91,93,-1,95,97,99,101,-1,103,-1,105,-1,-1,-1,-1,-1,-1,-1,-1,-1,-1,-1,-1,-1,-1,-1,-1,-1,-1,-1,-1,-1,-1,-1,-1,-1,-1,-1,-1,-1,-1,-1,-1,-1,-1,-1,-1,-1,-1,-1,-1,-1,-1,-1,-1],"loss_changes":[1.8816223E0,1.170105E0,2.4935341E-1,1.97966E0,6.3918304E-1,6.345177E-2,0E0,5.979614E-1,5.825653E-1,1.8577003E-1,4.0224457E-1,0E0,0E0,2.4375296E-1,1.0188446E0,2.1356201E-1,3.2107162E-1,1.8317032E-1,2.3212707E-2,2.2307587E-1,7.426071E-2,3.9668083E-2,0E0,7.142067E-1,3.322487E-1,1.9876099E-1,4.58992E-1,2.0636177E-1,4.779768E-1,1.5376472E-1,9.73177E-3,0E0,0E0,6.766796E-2,2.3784256E-1,2.7079105E-2,9.358883E-2,4.661846E-2,3.270048E-2,3.7587166E-1,1.9446182E-1,9.660196E-2,1.645298E-1,7.9082966E-2,2.2914886E-1,0E0,5.836582E-2,3.0866224E-2,2.0484161E-1,2.8532982E-2,3.8443565E-2,3.0806422E-2,1.0745239E-1,1.9450188E-3,0E0,4.49543E-2,4.72517E-2,2.4496078E-1,6.119919E-2,0E0,1.698494E-2,0E0,1.1038113E-1,0E0,0E0,0E0,0E0,0E0,0E0,0E0,0E0,0E0,0E0,0E0,0E0,0E0,0E0,0E0,0E0,0E0,0E0,0E0,0E0,0E0,0E0,0E0,0E0,0E0,0E0,0E0,0E0,0E0,0E0,0E0,0E0,0E0,0E0,0E0,0E0,0E0,0E0,0E0,0E0,0E0,0E0,0E0,0E0],"parents":[2147483647,0,0,1,1,2,2,3,3,4,4,5,5,7,7,8,8,9,9,10,10,13,13,14,14,15,15,16,16,17,17,18,18,19,19,20,20,21,21,23,23,24,24,25,25,26,26,27,27,28,28,29,29,30,30,33,33,34,34,35,35,36,36,37,37,38,38,39,39,40,40,41,41,42,42,43,43,44,44,46,46,47,47,48,48,49,49,50,50,51,51,52,52,53,53,55,55,56,56,57,57,58,58,60,60,62,62],"right_children":[2,4,6,8,10,12,-1,14,16,18,20,-1,-1,22,24,26,28,30,32,34,36,38,-1,40,42,44,46,48,50,52,54,-1,-1,56,58,60,62,64,66,68,70,72,74,76,78,-1,80,82,84,86,88,90,92,94,-1,96,98,100,102,-1,104,-1,106,-1,-1,-1,-1,-1,-1,-1,-1,-1,-1,-1,-1,-1,-1,-1,-1,-1,-1,-1,-1,-1,-1,-1,-1,-1,-1,-1,-1,-1,-1,-1,-1,-1,-1,-1,-1,-1,-1,-1,-1,-1,-1,-1,-1],"split_conditions":[1.15E1,2.5E0,8.82E1,5.5E-1,5E-1,7.42E1,7.315539E-2,3.65E1,7.25E1,4.75E1,1.05E1,5.099727E-2,2.6280155E-2,5E-1,1.1395E3,5E-1,1.75E0,3.62E1,4.5E0,5.95E1,7.15E1,5E-1,5.1069226E-2,5.45E1,2.2075E3,1.355E2,5.12E2,4.9E1,1.481E3,4.85E1,7.5E0,-6.752944E-3,7.257271E-3,5.55E1,2.5E0,3.7E1,7.65E0,8.5E0,1.5E1,1.09E1,7.85E1,8.559469E-1,1.715E1,4.3E1,1.55E0,-1.20478E-2,1.42E1,2.5E1,1.5E0,1.75E1,5E-1,7.9060227E-1,1.35E1,7.65E1,1.1417008E-2,2.95E0,2.19E1,1.25E0,4.5E0,4.0548565E-3,2.15E1,1.7612291E-2,1.859E3,1.9660529E-2,2.650083E-2,2.0748776E-4,1.5973354E-2,3.023383E-2,-4.5784353E-3,4.4522278E-2,3.5384867E-2,2.2665238E-2,3.0915236E-2,2.8314961E-2,3.5932727E-2,1.4479065E-2,3.1787705E-2,3.8226936E-2,4.9461734E-2,1.6116269E-2,3.349532E-2,1.6910171E-2,-1.7934084E-3,4.656722E-2,3.522727E-2,2.1830631E-2,8.057102E-2,4.806001E-2,1.7812079E-2,2.2914512E-2,1.46494955E-2,2.87787E-2,2.0075891E-2,4.639352E-2,2.2042012E-2,3.1889852E-2,9.702269E-3,1.6844383E-2,2.8104538E-2,3.481723E-2,4.341325E-2,3.0063096E-2,3.520734E-2,2.5984207E-2,1.1350798E-2,3.3669557E-2,2.1136856E-2],"split_indices":[4,1,7,5,4,7,0,2,13,7,1,0,0,4,2,11,5,9,1,13,13,10,0,13,2,2,2,2,2,13,3,0,0,13,10,13,7,2,2,9,13,14,9,13,8,0,7,2,1,2,11,14,1,13,0,5,9,5,10,0,1,0,2,0,0,0,0,0,0,0,0,0,0,0,0,0,0,0,0,0,0,0,0,0,0,0,0,0,0,0,0,0,0,0,0,0,0,0,0,0,0,0,0,0,0,0,0],"split_type":[0,0,0,0,0,0,0,0,0,0,0,0,0,0,0,0,0,0,0,0,0,0,0,0,0,0,0,0,0,0,0,0,0,0,0,0,0,0,0,0,0,0,0,0,0,0,0,0,0,0,0,0,0,0,0,0,0,0,0,0,0,0,0,0,0,0,0,0,0,0,0,0,0,0,0,0,0,0,0,0,0,0,0,0,0,0,0,0,0,0,0,0,0,0,0,0,0,0,0,0,0,0,0,0,0,0,0],"sum_hessian":[2.33E3,2.297E3,3.3E1,1.118E3,1.179E3,2.1E1,1.2E1,6.62E2,4.56E2,3.59E2,8.2E2,1.6E1,5E0,9.3E1,5.69E2,2.67E2,1.89E2,3.56E2,3E0,6.19E2,2.01E2,9E1,3E0,2.63E2,3.06E2,2.19E2,4.8E1,1.44E2,4.5E1,3.43E2,1.3E1,1E0,2E0,1.45E2,4.74E2,9.2E1,1.09E2,8.5E1,5E0,6.7E1,1.96E2,1.22E2,1.84E2,2.6E1,1.93E2,2E0,4.6E1,3E0,1.41E2,1E1,3.5E1,4.5E1,2.98E2,1.2E1,1E0,1.15E2,3E1,2.17E2,2.57E2,1E0,9.1E1,9E0,1E2,4E1,4.5E1,2E0,3E0,6.4E1,3E0,1.31E2,6.5E1,9.2E1,3E1,8.8E1,9.6E1,6E0,2E1,1.55E2,3.8E1,5E0,4.1E1,2E0,1E0,9.8E1,4.3E1,1E0,9E0,3.3E1,2E0,3E1,1.5E1,2.72E2,2.6E1,9E0,3E0,1.13E2,2E0,1.4E1,1.6E1,1.27E2,9E1,1.16E2,1.41E2,8.8E1,3E0,8.5E1,1.5E1],"tree_param":{"num_deleted":"0","num_feature":"16","num_nodes":"107","size_leaf_vector":"0"}},{"base_weights":[2.992069E-1,2.943053E-1,4.2785728E-1,3.0646777E-1,2.558702E-1,3.8638818E-1,5.825436E-1,2.5876543E-1,3.2560953E-1,2.3195599E-1,2.7740133E-1,3.9143825E-1,1.8966675E-2,2.5125483E-1,3.920172E-1,3.6492366E-1,3.0369982E-1,2.4806516E-1,1.9915514E-1,2.508189E-1,3.0153754E-1,3.498903E-1,4.5476192E-1,2.6866204E-1,2.1215345E-1,4.6933535E-1,2.0241424E-1,4.4058353E-1,3.3874783E-1,2.1225666E-1,3.1246412E-1,1.7339982E-1,2.6093248E-1,2.0570888E-1,1.029889E-1,2.5335833E-1,4.7860462E-2,3.0809593E-1,1.8153372E-1,4.252701E-1,3.0362192E-1,8.2960844E-2,4.673202E-1,2.1354845E-1,2.9637912E-1,-4.202493E-2,2.2108485E-1,4.968634E-1,1.44433975E-2,8.299456E-2,2.813511E-1,4.640488E-1,2.625979E-1,2.866739E-1,3.881537E-1,2.807764E-1,1.6593471E-1,2.9388687E-1,3.4450668E-1,1.2442149E-1,2.3241735E-1,2.407331E-1,3.051278E-1,2.0731053E-1,3.3983707E-2,4.476738E-2,1.1493484E-1,2.7343085E-1,2.1898073E-1,3.094202E-1,6.3997984E-2,7.2324514E-2,2.1800558E-1,4.390112E-1,1.1644745E-1,5.6014538E-2,3.0980232E-1,2.0257646E-1,3.0630237E-1,2.870927E-1,6.289911E-1,-1.2269163E-1,-1.3532639E-3,2.1663856E-2,2.2651157E-1,5.2928305E-1,1.7995055E-1,1.769185E-2,9.489727E-2,6.190586E-2,3.2073593E-1,4.0382832E-1,6.0075855E-1,7.978916E-3,3.0115625E-1,2.8948867E-1,3.9118767E-2,3.5213184E-1,4.387087E-1,1.8355563E-1,3.527974E-1,1.2944795E-1,3.2306582E-1,3.0895787E-1,2.4276757E-1,3.3372802E-1,4.415325E-1,1.6859888E-1,4.812491E-2,2.4193491E-1,6.3862085E-2,2.5917882E-1,1.8218328E-1,2.548954E-1,3.7396407E-1,3.852105E-2,2.088431E-1,2.7503088E-1,6.951356E-2,2.2794959E-1,1.0475389E-1,2.6240736E-1,3.2627547E-1],"categories":[],"categories_nodes":[],"categories_segments":[],"categories_sizes":[],"default_left":[1,1,1,1,1,1,0,1,1,1,1,1,0,1,1,1,1,1,1,1,1,1,1,1,1,1,1,1,1,1,1,1,1,1,1,1,0,1,1,1,1,0,0,1,1,1,1,1,0,1,1,1,1,1,1,1,1,1,1,1,1,1,1,1,0,0,0,1,1,1,0,0,0,0,0,0,0,0,0,0,0,0,0,0,0,0,0,0,0,0,0,0,0,0,0,0,0,0,0,0,0,0,0,0,0,0,0,0,0,0,0,0,0,0,0,0,0,0,0,0,0,0,0],"id":29,"left_children":[1,3,5,7,9,11,-1,13,15,17,19,21,-1,23,25,27,29,31,33,35,37,39,41,43,45,47,49,51,53,55,57,59,61,63,65,67,-1,69,71,73,75,-1,-1,77,79,81,83,85,-1,87,89,91,93,95,97,99,101,103,105,107,109,111,113,115,-1,-1,-1,117,119,121,-1,-1,-1,-1,-1,-1,-1,-1,-1,-1,-1,-1,-1,-1,-1,-1,-1,-1,-1,-1,-1,-1,-1,-1,-1,-1,-1,-1,-1,-1,-1,-1,-1,-1,-1,-1,-1,-1,-1,-1,-1,-1,-1,-1,-1,-1,-1,-1,-1,-1,-1,-1,-1],"loss_changes":[1.3723602E0,9.9302673E-1,3.2016277E-1,1.5009003E0,2.2245407E-1,1.22460365E-1,0E0,4.0390778E-1,9.5295715E-1,9.326267E-2,1.0914993E-1,2.241993E-2,0E0,2.683506E-1,2.714939E-1,7.1621704E-1,5.74028E-1,1.24806404E-1,3.8057566E-2,6.157589E-2,5.8977127E-2,3.1312943E-2,7.3290825E-2,4.362316E-1,3.543563E-1,2.057023E-1,6.1488926E-2,3.3337784E-1,7.3516464E-1,1.851089E-1,3.3151245E-1,5.490905E-2,5.9560776E-2,1.6883373E-2,4.1875243E-4,3.7420273E-2,0E0,2.4482727E-2,2.4063498E-2,1.2531757E-2,3.161645E-2,0E0,0E0,5.2949905E-2,4.8350906E-1,1.951906E-2,1.5417719E-1,6.914282E-2,0E0,2.2074878E-3,2.3358643E-2,5.395069E-1,1.4486253E-1,1.02952E-1,1.4781761E-1,1.3129616E-1,2.2190726E-1,2.847786E-1,1.2560463E-1,5.2556694E-2,3.8003325E-3,6.834078E-2,5.33638E-2,1.4202118E-2,0E0,0E0,0E0,8.61454E-3,3.451705E-2,2.2150993E-2,0E0,0E0,0E0,0E0,0E0,0E0,0E0,0E0,0E0,0E0,0E0,0E0,0E0,0E0,0E0,0E0,0E0,0E0,0E0,0E0,0E0,0E0,0E0,0E0,0E0,0E0,0E0,0E0,0E0,0E0,0E0,0E0,0E0,0E0,0E0,0E0,0E0,0E0,0E0,0E0,0E0,0E0,0E0,0E0,0E0,0E0,0E0,0E0,0E0,0E0,0E0,0E0,0E0],"parents":[2147483647,0,0,1,1,2,2,3,3,4,4,5,5,7,7,8,8,9,9,10,10,11,11,13,13,14,14,15,15,16,16,17,17,18,18,19,19,20,20,21,21,22,22,23,23,24,24,25,25,26,26,27,27,28,28,29,29,30,30,31,31,32,32,33,33,34,34,35,35,37,37,38,38,39,39,40,40,43,43,44,44,45,45,46,46,47,47,49,49,50,50,51,51,52,52,53,53,54,54,55,55,56,56,57,57,58,58,59,59,60,60,61,61,62,62,63,63,67,67,68,68,69,69],"right_children":[2,4,6,8,10,12,-1,14,16,18,20,22,-1,24,26,28,30,32,34,36,38,40,42,44,46,48,50,52,54,56,58,60,62,64,66,68,-1,70,72,74,76,-1,-1,78,80,82,84,86,-1,88,90,92,94,96,98,100,102,104,106,108,110,112,114,116,-1,-1,-1,118,120,122,-1,-1,-1,-1,-1,-1,-1,-1,-1,-1,-1,-1,-1,-1,-1,-1,-1,-1,-1,-1,-1,-1,-1,-1,-1,-1,-1,-1,-1,-1,-1,-1,-1,-1,-1,-1,-1,-1,-1,-1,-1,-1,-1,-1,-1,-1,-1,-1,-1,-1,-1,-1,-1],"split_conditions":[8.5E0,6.5E0,1.35E1,5.7409212E-2,1.5955414E0,1.1E1,5.825436E-2,5.9549594E-1,1.5E0,1.15E1,3.5E0,8.65E1,1.8966675E-3,5E-1,1.1945E3,1.187E3,2.24E2,4.85E1,2.935E1,5.6498127E0,4.665E1,2.185E3,7.0000005E-1,2.75E1,5.5E0,1.85E1,1.927E3,9.613906E-1,1.725E1,8.3E1,1.35E1,5E-1,1.5E0,7E0,3.05E1,2.37E1,4.786046E-3,2.25E1,1.983E3,1.3833511E1,5.340962E0,8.296085E-3,4.673202E-2,3.530901E-2,9.55E1,4.5E-1,1.6E1,4.5E0,1.4443398E-3,1.3315E3,5E-1,5E-1,9.749489E-1,6.2230167E0,7.25E1,7.5E-1,2.528239E-1,2.343E3,2.15E1,7.561768E-1,1.8385E3,1.0761024E0,1.45E1,3.5E1,3.3983707E-3,4.476738E-3,1.14934845E-2,2.368E3,1.45E0,6.45E1,6.3997987E-3,7.2324513E-3,2.1800559E-2,4.390112E-2,1.1644745E-2,5.601454E-3,3.0980233E-2,2.0257646E-2,3.0630236E-2,2.8709268E-2,6.289911E-2,-1.22691635E-2,-1.353264E-4,2.1663855E-3,2.2651156E-2,5.2928306E-2,1.7995056E-2,1.7691851E-3,9.489727E-3,6.1905864E-3,3.2073595E-2,4.0382832E-2,6.0075857E-2,7.9789164E-4,3.0115625E-2,2.8948868E-2,3.9118766E-3,3.5213184E-2,4.387087E-2,1.8355563E-2,3.527974E-2,1.2944795E-2,3.230658E-2,3.0895788E-2,2.4276758E-2,3.33728E-2,4.415325E-2,1.6859887E-2,4.812491E-3,2.4193492E-2,6.386209E-3,2.5917882E-2,1.821833E-2,2.5489539E-2,3.739641E-2,3.8521052E-3,2.088431E-2,2.7503088E-2,6.951356E-3,2.279496E-2,1.0475389E-2,2.6240736E-2,3.262755E-2],"split_indices":[4,1,4,14,15,10,0,15,1,1,3,13,0,10,2,2,2,13,9,14,9,2,5,2,12,12,2,14,7,2,12,4,3,10,9,9,0,12,2,14,15,0,0,15,13,9,2,1,0,2,10,3,14,15,13,5,15,2,12,14,2,14,12,13,0,0,0,2,5,13,0,0,0,0,0,0,0,0,0,0,0,0,0,0,0,0,0,0,0,0,0,0,0,0,0,0,0,0,0,0,0,0,0,0,0,0,0,0,0,0,0,0,0,0,0,0,0,0,0,0,0,0,0],"split_type":[0,0,0,0,0,0,0,0,0,0,0,0,0,0,0,0,0,0,0,0,0,0,0,0,0,0,0,0,0,0,0,0,0,0,0,0,0,0,0,0,0,0,0,0,0,0,0,0,0,0,0,0,0,0,0,0,0,0,0,0,0,0,0,0,0,0,0,0,0,0,0,0,0,0,0,0,0,0,0,0,0,0,0,0,0,0,0,0,0,0,0,0,0,0,0,0,0,0,0,0,0,0,0,0,0,0,0,0,0,0,0,0,0,0,0,0,0,0,0,0,0,0,0],"sum_hessian":[2.375E3,2.291E3,8.4E1,1.735E3,5.56E2,6.9E1,1.5E1,5.01E2,1.234E3,2.69E2,2.87E2,6.8E1,1E0,4.77E2,2.4E1,4.36E2,7.98E2,1.76E2,9.3E1,1.42E2,1.45E2,4.5E1,2.3E1,3.26E2,1.51E2,1.6E1,8E0,1.08E2,3.28E2,7.2E1,7.26E2,2.8E1,1.48E2,8.6E1,7E0,1.4E2,2E0,1.36E2,9E0,1.4E1,3.1E1,1E0,2.2E1,1.12E2,2.14E2,5E0,1.46E2,1.5E1,1E0,4E0,4E0,9.4E1,1.4E1,1.63E2,1.65E2,2.7E1,4.5E1,4.66E2,2.6E2,1.7E1,1.1E1,1.06E2,4.2E1,8.5E1,1E0,2E0,5E0,8.4E1,5.6E1,1.35E2,1E0,3E0,6E0,1.3E1,1E0,1E0,3E1,1.03E2,9E0,2.1E2,4E0,1E0,4E0,4E0,1.42E2,1.3E1,2E0,1E0,3E0,1E0,3E0,6.8E1,2.6E1,2E0,1.2E1,1.61E2,2E0,1.01E2,6.4E1,1.3E1,1.4E1,3.8E1,7E0,3.56E2,1.1E2,2.38E2,2.2E1,1E1,7E0,1E1,1E0,7.8E1,2.8E1,2.7E1,1.5E1,1E0,8.4E1,8.3E1,1E0,5.1E1,5E0,4E1,9.5E1],"tree_param":{"num_deleted":"0","num_feature":"16","num_nodes":"123","size_leaf_vector":"0"}},{"base_weights":[2.7314475E-1,2.6647303E-1,4.1363972E-1,2.3227373E-1,2.8169957E-1,3.7872517E-1,6.2890905E-1,2.8050897E-1,2.2178505E-1,3.0346867E-1,2.613689E-1,4.0230054E-1,2.4159828E-1,3.6985996E-1,7.98114E-1,2.3796481E-1,3.4377643E-1,1.3024996E-1,2.2748724E-1,2.5883898E-1,3.315188E-1,2.3221558E-1,2.8987205E-1,4.061426E-1,5.5152178E-2,3.0838835E-1,3.2982446E-2,2.4969609E-1,6.1438877E-2,5.193197E-1,2.9895276E-1,1.4701946E-1,3.977353E-2,2.4376231E-1,1.9956608E-1,2.8538245E-1,2.0960683E-1,3.1952164E-1,4.321263E-1,1.8851058E-1,2.4102086E-1,2.971568E-1,2.0228536E-1,4.621155E-1,3.6386436E-1,8.907485E-2,3.2022822E-1,-9.7060204E-4,4.1713357E-2,2.6007232E-1,6.279068E-2,1.0511287E-1,1.3323665E-2,3.066146E-1,3.9012432E-3,1.0047213E-1,2.0016043E-1,6.1480425E-2,-9.662469E-3,2.1805209E-1,2.7203017E-1,2.1426962E-1,1.24997616E-1,3.1705087E-1,1.9828716E-1,1.4774577E-1,2.6109695E-1,3.1362358E-1,4.8654762E-1,7.5318575E-2,4.385238E-1,1.9263011E-1,-5.1988125E-2,2.6699117E-1,2.115964E-1,2.6906273E-1,3.2485086E-1,1.5716463E-1,2.2963516E-1,1.7258628E-1,4.7717002E-1,1.275202E-1,3.7678686E-1,9.179354E-2,3.3389235E-1,1.2540579E-1,2.7144888E-1,8.809185E-2,-1.9207E-2,-1.8497467E-2,3.009653E-2,2.1836527E-1,3.4376967E-1,1.5270692E-1,5.3349365E-2,2.1847092E-1,6.630182E-2,9.4361305E-3,7.213247E-2,2.6253283E-1,1.965523E-1,4.4882768E-1,2.60712E-1,1.6112903E-1,2.3849422E-1,1.3453396E-1,-1.04387045E-1,2.2507147E-1,3.39224E-1,9.484514E-2,2.9808128E-1,1.09873034E-1,5.55814E-1,6.329012E-2,2.7509573E-1,2.9350576E-1,3.4578598E-1,5.283391E-1,3.6240533E-1,2.3953234E-1,1.6193256E-1,2.7476203E-1,9.572257E-2,2.0258684E-1,2.6158404E-1,1.0534924E-1,2.7478054E-1,3.091472E-1,4.5815974E-1,1.7250521E-1,8.89143E-2,8.618959E-2,2.4144113E-1,4.852035E-1,1.3414955E-1,3.5619974E-2,3.837311E-1],"categories":[],"categories_nodes":[],"categories_segments":[],"categories_sizes":[],"default_left":[1,1,1,1,1,1,1,1,1,1,1,1,1,0,0,1,1,1,1,1,1,1,1,1,0,1,1,1,1,0,1,1,1,1,1,1,1,1,1,1,1,1,1,1,1,0,1,0,0,1,1,0,1,1,0,1,1,1,0,1,1,1,1,1,1,1,1,1,0,0,1,1,0,1,1,1,1,1,1,0,1,0,1,0,0,0,0,0,0,0,0,0,0,0,0,0,0,0,0,0,0,0,0,0,0,0,0,0,0,0,0,0,0,0,0,0,0,0,0,0,0,0,0,0,0,0,0,0,0,0,0,0,0,0,0,0,0],"id":30,"left_children":[1,3,5,7,9,11,13,15,17,19,21,23,25,-1,-1,27,29,31,33,35,37,39,41,43,-1,45,47,49,51,-1,53,55,57,59,61,63,65,67,69,71,73,75,77,79,81,-1,83,-1,-1,85,87,-1,89,91,-1,93,95,97,-1,99,101,103,105,107,109,111,113,115,-1,-1,117,119,-1,121,123,125,127,129,131,-1,133,-1,135,-1,-1,-1,-1,-1,-1,-1,-1,-1,-1,-1,-1,-1,-1,-1,-1,-1,-1,-1,-1,-1,-1,-1,-1,-1,-1,-1,-1,-1,-1,-1,-1,-1,-1,-1,-1,-1,-1,-1,-1,-1,-1,-1,-1,-1,-1,-1,-1,-1,-1,-1,-1,-1,-1],"loss_changes":[2.0775452E0,1.0963287E0,5.4348564E-1,2.883911E-1,6.0181427E-1,2.0022488E-1,2.7463055E-1,2.4119282E-1,2.6996994E-1,8.368149E-1,5.999527E-1,8.029938E-2,2.1276397E-1,0E0,0E0,1.399746E-1,2.0669842E-1,4.877329E-2,1.9628334E-1,3.178444E-1,4.0387344E-1,1.0926819E-1,1.9638443E-1,1.1702538E-2,0E0,2.635479E-3,1.5226924E-3,1.1942625E-1,1.1207813E-2,0E0,8.69689E-2,5.409658E-2,8.105766E-3,1.848793E-1,1.9688702E-1,4.4739437E-1,2.9587364E-1,2.4638367E-1,6.969166E-2,8.134794E-2,1.9644356E-1,1.9969177E-1,5.8670044E-3,4.4049263E-2,9.855223E-2,0E0,3.685832E-3,0E0,0E0,6.7073345E-2,1.2065167E-2,0E0,2.6916359E-3,4.953122E-2,0E0,3.6159247E-2,1.7378151E-2,2.0912401E-3,0E0,1.2149334E-1,1.9514656E-1,1.7912674E-1,9.2793226E-2,1.9693947E-1,5.0851965E-1,7.116642E-1,1.3765621E-1,1.5344238E-1,0E0,0E0,1.0933781E-1,6.343651E-2,0E0,2.0261574E-1,1.906538E-2,1.4797306E-1,2.3727226E-1,1.4137924E-3,1.1366963E-2,0E0,9.313107E-3,0E0,9.294319E-2,0E0,0E0,0E0,0E0,0E0,0E0,0E0,0E0,0E0,0E0,0E0,0E0,0E0,0E0,0E0,0E0,0E0,0E0,0E0,0E0,0E0,0E0,0E0,0E0,0E0,0E0,0E0,0E0,0E0,0E0,0E0,0E0,0E0,0E0,0E0,0E0,0E0,0E0,0E0,0E0,0E0,0E0,0E0,0E0,0E0,0E0,0E0,0E0,0E0,0E0,0E0,0E0,0E0,0E0],"parents":[2147483647,0,0,1,1,2,2,3,3,4,4,5,5,6,6,7,7,8,8,9,9,10,10,11,11,12,12,15,15,16,16,17,17,18,18,19,19,20,20,21,21,22,22,23,23,25,25,26,26,27,27,28,28,30,30,31,31,32,32,33,33,34,34,35,35,36,36,37,37,38,38,39,39,40,40,41,41,42,42,43,43,44,44,46,46,49,49,50,50,52,52,53,53,55,55,56,56,57,57,59,59,60,60,61,61,62,62,63,63,64,64,65,65,66,66,67,67,70,70,71,71,73,73,74,74,75,75,76,76,77,77,78,78,80,80,82,82],"right_children":[2,4,6,8,10,12,14,16,18,20,22,24,26,-1,-1,28,30,32,34,36,38,40,42,44,-1,46,48,50,52,-1,54,56,58,60,62,64,66,68,70,72,74,76,78,80,82,-1,84,-1,-1,86,88,-1,90,92,-1,94,96,98,-1,100,102,104,106,108,110,112,114,116,-1,-1,118,120,-1,122,124,126,128,130,132,-1,134,-1,136,-1,-1,-1,-1,-1,-1,-1,-1,-1,-1,-1,-1,-1,-1,-1,-1,-1,-1,-1,-1,-1,-1,-1,-1,-1,-1,-1,-1,-1,-1,-1,-1,-1,-1,-1,-1,-1,-1,-1,-1,-1,-1,-1,-1,-1,-1,-1,-1,-1,-1,-1,-1,-1,-1],"split_conditions":[2.75E0,6.15E1,1.15E1,5E-1,2.5E0,3.35E1,3.55E0,8.5E-1,3.65E1,6.889364E-2,1.5E0,2.5E0,2.5E0,3.6985997E-2,7.98114E-2,5E-1,7.642451E-3,5E-1,5.55E1,7.95E1,9.15E1,8.648753E-2,1.65E1,8.405E1,5.515218E-3,5E-1,5.5E0,5.5E0,5E-2,5.1931974E-2,1.25E1,5E-1,5E-1,7.5942945E-1,2.5E-1,1.45E1,1.5E0,1.95E0,2.5E-1,8.59897E-2,6.5E0,7.75E1,6.5E-1,4.2E1,3.2286267E0,8.907485E-3,5.5E-1,-9.7060205E-5,4.1713356E-3,4.05E1,3.4E1,1.05112875E-2,1E1,4.5E-1,3.9012433E-4,1.5E0,2.55E1,9.5E-1,-9.662469E-4,1.5E0,1.7591664E-1,2.5528842E-1,2.35E0,6.45E1,3.35E1,9.55E1,8.15E1,1.905E1,4.865476E-2,7.5318576E-3,1.75E1,5E-1,-5.1988126E-3,3.425221E0,4.694731E0,4.268841E-1,1.45E0,5.0254855E0,1.3614963E0,1.7258627E-2,6.5E0,1.2752021E-2,5.15E1,9.179354E-3,3.3389237E-2,1.2540579E-2,2.7144888E-2,8.809186E-3,-1.9207001E-3,-1.8497467E-3,3.0096532E-3,2.1836527E-2,3.4376968E-2,1.5270692E-2,5.3349365E-3,2.1847092E-2,6.6301823E-3,9.4361306E-4,7.213247E-3,2.6253283E-2,1.9655231E-2,4.488277E-2,2.60712E-2,1.6112903E-2,2.3849422E-2,1.3453396E-2,-1.0438705E-2,2.2507148E-2,3.39224E-2,9.484514E-3,2.9808128E-2,1.0987303E-2,5.5581402E-2,6.329012E-3,2.7509574E-2,2.9350577E-2,3.45786E-2,5.283391E-2,3.6240533E-2,2.3953235E-2,1.6193256E-2,2.7476205E-2,9.572257E-3,2.0258686E-2,2.6158405E-2,1.0534924E-2,2.7478054E-2,3.0914722E-2,4.5815974E-2,1.7250521E-2,8.89143E-3,8.618959E-3,2.4144113E-2,4.8520353E-2,1.3414956E-2,3.5619976E-3,3.837311E-2],"split_indices":[5,13,4,1,1,0,5,8,13,14,4,11,1,0,0,11,15,11,13,13,13,15,1,7,0,10,4,10,6,0,10,4,4,15,6,0,0,8,5,15,1,13,8,13,15,0,8,0,0,13,0,0,0,5,0,0,0,8,0,1,14,14,8,13,0,13,13,7,0,0,0,0,0,14,14,14,8,14,15,0,10,0,13,0,0,0,0,0,0,0,0,0,0,0,0,0,0,0,0,0,0,0,0,0,0,0,0,0,0,0,0,0,0,0,0,0,0,0,0,0,0,0,0,0,0,0,0,0,0,0,0,0,0,0,0,0,0],"split_type":[0,0,0,0,0,0,0,0,0,0,0,0,0,0,0,0,0,0,0,0,0,0,0,0,0,0,0,0,0,0,0,0,0,0,0,0,0,0,0,0,0,0,0,0,0,0,0,0,0,0,0,0,0,0,0,0,0,0,0,0,0,0,0,0,0,0,0,0,0,0,0,0,0,0,0,0,0,0,0,0,0,0,0,0,0,0,0,0,0,0,0,0,0,0,0,0,0,0,0,0,0,0,0,0,0,0,0,0,0,0,0,0,0,0,0,0,0,0,0,0,0,0,0,0,0,0,0,0,0,0,0,0,0,0,0,0,0],"sum_hessian":[2.333E3,2.23E3,1.03E2,6.92E2,1.538E3,9.1E1,1.2E1,1.19E2,5.73E2,7.36E2,8.02E2,7.6E1,1.5E1,6E0,6E0,7.4E1,4.5E1,3.5E1,5.38E2,2.88E2,4.48E2,4.01E2,4.01E2,7.5E1,1E0,1.1E1,4E0,6.9E1,5E0,7E0,3.8E1,2.9E1,6E0,3.35E2,2.03E2,1.84E2,1.04E2,4.04E2,4.4E1,7.1E1,3.3E2,3.68E2,3.3E1,2.8E1,4.7E1,1E0,1E1,1E0,3E0,6.5E1,4E0,2E0,3E0,3.7E1,1E0,1.7E1,1.2E1,4E0,2E0,1.8E2,1.55E2,1.68E2,3.5E1,1.33E2,5.1E1,4.9E1,5.5E1,3.93E2,1.1E1,1E0,4.3E1,7E1,1E0,1.71E2,1.59E2,1.88E2,1.8E2,1.5E1,1.8E1,2E0,2.6E1,3E0,4.4E1,1E0,9E0,6E0,5.9E1,3E0,1E0,1E0,2E0,1.3E1,2.4E1,7E0,1E1,1E1,2E0,1E0,3E0,5.5E1,1.25E2,7E0,1.48E2,5.5E1,1.13E2,3.4E1,1E0,2.8E1,1.05E2,2.6E1,2.5E1,4.6E1,3E0,4E0,5.1E1,2.48E2,1.45E2,1.7E1,2.6E1,2.5E1,4.5E1,1.63E2,8E0,1.39E2,2E1,7E0,1.81E2,1.64E2,1.6E1,1.1E1,4E0,2E0,1.6E1,2.5E1,1E0,1E0,4.3E1],"tree_param":{"num_deleted":"0","num_feature":"16","num_nodes":"137","size_leaf_vector":"0"}},{"base_weights":[2.4161576E-1,2.227939E-1,2.6369375E-1,2.0905176E-1,2.525222E-1,2.5900936E-1,4.4112924E-1,1.9162652E-1,2.3098825E-1,2.7171135E-1,1.8623686E-1,2.4981081E-1,3.1066254E-1,4.9819636E-1,2.7163976E-1,1.3229266E-1,1.9767241E-1,2.55013E-1,1.988236E-1,3.1099987E-1,2.4819352E-1,6.9826394E-2,2.246034E-1,2.605519E-1,2.0901339E-1,2.1900465E-1,3.2858175E-1,9.8882675E-2,5.14887E-1,2.4715185E-2,2.9941595E-1,1.5580796E-1,-1.7708528E-1,2.2968519E-1,1.8059458E-1,2.941966E-2,2.5796896E-1,1.5524709E-1,2.2298552E-1,1.8637024E-1,3.265843E-1,8.5465826E-2,2.5188982E-1,-8.40497E-2,9.4629936E-2,2.438598E-1,1.5435627E-1,2.0887011E-1,2.7344623E-1,1.8700318E-1,2.498669E-1,2.4233791E-1,1.2587309E-2,1.5116791E-1,3.4043056E-1,1.8170579E-1,5.4517806E-1,8.66251E-2,3.1743962E-1,1.6163799E-1,1.6421476E-2,-3.056701E-1,1.0433459E-1,2.6823664E-1,1.7447151E-1,1.4080387E-1,1.9912373E-1,5.6067783E-2,-2.5262356E-2,3.272806E-1,2.4346153E-1,2.1855369E-1,1.2434755E-1,2.897638E-1,1.8748549E-1,2.1345946E-1,-9.643936E-2,4.288029E-1,3.0200928E-1,1.3773136E-1,-8.793092E-2,2.543639E-1,6.892526E-2,-1.2107579E-1,1.351428E-2,2.1936667E-1,6.338905E-2,1.7539158E-1,2.7601707E-1,1.687978E-1,6.1611414E-2,2.9949877E-1,1.704972E-1,2.836177E-1,1.9933617E-1,7.86145E-2,1.9336201E-1,2.6041073E-1,1.2379612E-1,1.236175E-1,3.3526844E-1,-2.5949168E-1,1.8977754E-1,1.967051E-1,-2.0653883E-2,3.453882E-1,1.5534429E-1,1.6544865E-1,-3.0155182E-3,4.742384E-3,1.9889832E-2,-4.2835832E-1,-3.0146837E-2,1.799685E-1,2.893229E-1,1.818218E-1,1.3249278E-2,1.5560575E-1,4.6552848E-2,2.1316081E-1,1.2225604E-1,3.568172E-1,1.5816042E-1,1.0213566E-1,2.484455E-1,2.3329844E-1,5.723397E-2,9.795372E-2,2.574055E-1,3.7554848E-1,2.312236E-1,-5.953765E-2,1.9168495E-1,2.582139E-1,3.701985E-2,2.7207407E-1,5.711136E-1,-7.957983E-2,3.0756554E-1,1.6038048E-1,2.3567438E-2,2.35841E-1,2.899958E-1,7.872009E-2,1.9770384E-2,8.537779E-2,-1.5254974E-2,2.3083408E-1,8.198028E-2,2.8379053E-1,5.8596134E-3,1.8201135E-1,5.5273216E-2,-5.5202007E-2,1.1894989E-1,2.1201779E-1,4.4866207E-1,1.8765222E-1,7.5250044E-2,2.7533805E-1,3.8693467E-1,1.1086774E-1,2.3293175E-1,8.610928E-2,9.328127E-3,2.3931023E-1,1.7810519E-1,9.088957E-2,2.677383E-1,3.242898E-2,1.3361914E-1,-3.8402334E-1,2.5082704E-1,8.012667E-1,1.3533558E-1,-3.830576E-2,7.324934E-3,3.4814477E-1,1.2367153E-1],"categories":[],"categories_nodes":[],"categories_segments":[],"categories_sizes":[],"default_left":[1,1,1,1,1,1,1,1,1,1,1,1,1,1,1,1,1,1,1,1,1,1,1,1,1,1,1,0,1,0,1,1,1,1,1,1,1,1,1,1,1,1,1,1,1,1,1,1,1,1,1,1,1,1,1,0,0,0,0,1,1,1,0,1,1,1,1,0,0,1,1,1,1,1,1,1,0,1,1,1,0,1,1,0,0,0,1,1,1,1,1,1,1,1,1,1,1,1,1,1,1,0,0,0,1,1,0,0,0,0,0,0,0,0,0,0,0,0,0,0,0,0,0,0,0,0,0,0,0,0,0,0,0,0,0,0,0,0,0,0,0,0,0,0,0,0,0,0,0,0,0,0,0,0,0,0,0,0,0,0,0,0,0,0,0,0,0,0,0,0,0,0,0,0,0,0,0,0,0],"id":31,"left_children":[1,3,5,7,9,11,13,15,17,19,21,23,25,27,29,31,33,35,37,39,41,43,45,47,49,51,53,-1,55,-1,57,59,61,63,65,67,69,71,73,75,77,79,81,83,85,87,89,91,93,95,97,99,101,103,105,-1,-1,-1,-1,107,109,111,-1,113,115,117,119,-1,-1,121,123,125,127,129,131,133,-1,135,137,139,-1,141,143,-1,-1,-1,145,147,149,151,153,155,157,159,161,163,165,167,169,171,173,-1,-1,-1,175,177,-1,-1,-1,-1,-1,-1,-1,-1,-1,-1,-1,-1,-1,-1,-1,-1,-1,-1,-1,-1,-1,-1,-1,-1,-1,-1,-1,-1,-1,-1,-1,-1,-1,-1,-1,-1,-1,-1,-1,-1,-1,-1,-1,-1,-1,-1,-1,-1,-1,-1,-1,-1,-1,-1,-1,-1,-1,-1,-1,-1,-1,-1,-1,-1,-1,-1,-1,-1,-1,-1,-1,-1,-1],"loss_changes":[9.4395447E-1,4.8197937E-1,8.041992E-1,3.001442E-1,4.6962738E-1,4.350586E-1,1.2582159E-1,1.5608215E-1,2.5375938E-1,2.1386528E-1,4.0861225E-1,3.4913254E-1,1.8918705E-1,7.571745E-2,5.432743E-2,3.913471E-1,2.094593E-1,1.4045048E-1,1.4753294E-1,1.6055298E-1,9.9972725E-2,1.0337045E-1,5.840087E-2,4.260254E-1,1.3041687E-1,1.3662481E-1,2.2391891E-1,0E0,8.260107E-2,0E0,3.1839013E-3,3.553903E-2,1.7663726E-1,2.8525734E-1,1.9609737E-1,7.2450964E-3,1.4053154E-1,9.9972725E-2,2.0407248E-1,1.3550222E-1,1.2170029E-1,6.648689E-2,7.1642876E-2,1.6085902E-2,7.182604E-2,7.0483685E-2,1.3708949E-2,4.671111E-1,3.7841034E-1,7.57761E-2,5.5493355E-2,2.4540639E-1,2.4208464E-1,8.230555E-2,5.8291435E-2,0E0,0E0,0E0,0E0,2.8733611E-2,2.7196482E-5,8.8496715E-2,0E0,1.1544275E-1,7.698774E-2,1.3226521E-1,1.9513512E-1,0E0,0E0,1.1839867E-1,1.0493183E-1,3.42198E-2,1.3633394E-1,9.395099E-2,8.817744E-2,1.0099143E-1,0E0,2.2378612E-1,2.025733E-1,9.148806E-3,0E0,5.9648514E-2,3.695283E-4,0E0,0E0,0E0,3.415881E-2,8.4655344E-2,7.1839094E-2,1.2440562E-2,3.3357885E-2,4.6598077E-1,1.6071367E-1,3.254547E-1,1.9114208E-1,3.8703382E-3,4.4305325E-2,5.0196648E-2,1.9493774E-3,9.3582135E-1,1.1959172E0,0E0,0E0,0E0,1.762223E-3,2.9063225E-2,0E0,0E0,0E0,0E0,0E0,0E0,0E0,0E0,0E0,0E0,0E0,0E0,0E0,0E0,0E0,0E0,0E0,0E0,0E0,0E0,0E0,0E0,0E0,0E0,0E0,0E0,0E0,0E0,0E0,0E0,0E0,0E0,0E0,0E0,0E0,0E0,0E0,0E0,0E0,0E0,0E0,0E0,0E0,0E0,0E0,0E0,0E0,0E0,0E0,0E0,0E0,0E0,0E0,0E0,0E0,0E0,0E0,0E0,0E0,0E0,0E0,0E0,0E0,0E0,0E0,0E0,0E0,0E0,0E0,0E0,0E0,0E0,0E0],"parents":[2147483647,0,0,1,1,2,2,3,3,4,4,5,5,6,6,7,7,8,8,9,9,10,10,11,11,12,12,13,13,14,14,15,15,16,16,17,17,18,18,19,19,20,20,21,21,22,22,23,23,24,24,25,25,26,26,28,28,30,30,31,31,32,32,33,33,34,34,35,35,36,36,37,37,38,38,39,39,40,40,41,41,42,42,43,43,44,44,45,45,46,46,47,47,48,48,49,49,50,50,51,51,52,52,53,53,54,54,59,59,60,60,61,61,63,63,64,64,65,65,66,66,69,69,70,70,71,71,72,72,73,73,74,74,75,75,77,77,78,78,79,79,81,81,82,82,86,86,87,87,88,88,89,89,90,90,91,91,92,92,93,93,94,94,95,95,96,96,97,97,98,98,99,99,100,100,104,104,105,105],"right_children":[2,4,6,8,10,12,14,16,18,20,22,24,26,28,30,32,34,36,38,40,42,44,46,48,50,52,54,-1,56,-1,58,60,62,64,66,68,70,72,74,76,78,80,82,84,86,88,90,92,94,96,98,100,102,104,106,-1,-1,-1,-1,108,110,112,-1,114,116,118,120,-1,-1,122,124,126,128,130,132,134,-1,136,138,140,-1,142,144,-1,-1,-1,146,148,150,152,154,156,158,160,162,164,166,168,170,172,174,-1,-1,-1,176,178,-1,-1,-1,-1,-1,-1,-1,-1,-1,-1,-1,-1,-1,-1,-1,-1,-1,-1,-1,-1,-1,-1,-1,-1,-1,-1,-1,-1,-1,-1,-1,-1,-1,-1,-1,-1,-1,-1,-1,-1,-1,-1,-1,-1,-1,-1,-1,-1,-1,-1,-1,-1,-1,-1,-1,-1,-1,-1,-1,-1,-1,-1,-1,-1,-1,-1,-1,-1,-1,-1,-1,-1,-1],"split_conditions":[7.05E1,1.05E0,3.45E0,6.15E1,5E-1,9.15E1,8.5E-1,5.7E1,6.65E1,1.5E0,1.55E1,7.5E0,3.5E0,7.2E1,1.65E1,5E-1,1.5E0,3.5E0,4.5E-1,3.5E0,7.1E1,1.5E-1,1.5E-1,1.5E-1,1.1500001E0,2.2E1,1.5E-1,9.888268E-3,3.5000002E-1,2.4715185E-3,2.95E1,1.45E1,5E-1,1.9855E3,3.125543E-1,2E0,1.5E-1,8.5E0,1.5E0,1.45E1,7.5E0,5E-1,1.25E1,9E0,2.5176859E-2,8.5E0,2.85E1,7.75E1,3.5000002E-1,3.06E2,5.5E-1,1.75E1,5E-1,9.8E1,1.8E1,1.8170578E-2,5.4517806E-2,8.66251E-3,3.1743962E-2,1.25E0,1.5E0,4.65E1,1.043346E-2,4.15E1,1.5E0,1.5E-1,2.181E3,5.6067784E-3,-2.5262355E-3,1.4E1,6.5E0,4E0,3.45E1,1.5E0,1.5E0,2.25E0,-9.6439365E-3,2.1940458E-1,8.5E0,1.5E-1,-8.793092E-3,2.725917E0,1.8E1,-1.2107579E-2,1.3514281E-3,2.1936668E-2,7.5E-1,9.406624E-1,9.5E0,5.105506E0,3.05E1,1.45E1,8.9E1,2.05E1,4.5E0,2.5E0,7.3812085E-1,1.5E0,7.5E0,5E-1,5E-1,-2.5949169E-2,1.8977754E-2,1.967051E-2,1.9E1,8.5E-1,1.553443E-2,1.6544865E-2,-3.0155183E-4,4.742384E-4,1.9889832E-3,-4.283583E-2,-3.0146837E-3,1.7996851E-2,2.8932292E-2,1.8182179E-2,1.3249278E-3,1.5560575E-2,4.655285E-3,2.1316081E-2,1.2225605E-2,3.568172E-2,1.5816042E-2,1.0213566E-2,2.484455E-2,2.3329845E-2,5.7233972E-3,9.795372E-3,2.5740549E-2,3.755485E-2,2.312236E-2,-5.953765E-3,1.9168494E-2,2.5821391E-2,3.7019849E-3,2.7207408E-2,5.711136E-2,-7.957983E-3,3.0756554E-2,1.6038049E-2,2.356744E-3,2.3584101E-2,2.899958E-2,7.87201E-3,1.9770383E-3,8.53778E-3,-1.5254974E-3,2.308341E-2,8.198028E-3,2.8379053E-2,5.8596133E-4,1.8201135E-2,5.5273217E-3,-5.520201E-3,1.1894989E-2,2.120178E-2,4.4866208E-2,1.8765222E-2,7.5250044E-3,2.7533805E-2,3.869347E-2,1.1086774E-2,2.3293175E-2,8.610928E-3,9.328127E-4,2.3931025E-2,1.781052E-2,9.088958E-3,2.677383E-2,3.242898E-3,1.3361915E-2,-3.8402334E-2,2.5082706E-2,8.0126666E-2,1.3533558E-2,-3.830576E-3,7.324934E-4,3.4814477E-2,1.2367154E-2],"split_indices":[13,8,5,13,11,13,6,2,13,1,0,1,0,13,3,0,1,2,8,0,2,5,6,8,5,12,8,0,8,0,0,12,8,2,15,2,8,12,10,12,0,0,1,0,15,12,0,13,6,2,6,12,1,13,1,0,0,0,0,6,1,2,0,13,11,6,2,0,0,12,12,3,0,1,0,8,0,15,0,6,0,15,0,0,0,0,5,15,1,15,0,12,13,12,3,10,15,3,3,1,1,0,0,0,0,6,0,0,0,0,0,0,0,0,0,0,0,0,0,0,0,0,0,0,0,0,0,0,0,0,0,0,0,0,0,0,0,0,0,0,0,0,0,0,0,0,0,0,0,0,0,0,0,0,0,0,0,0,0,0,0,0,0,0,0,0,0,0,0,0,0,0,0,0,0,0,0,0,0],"split_type":[0,0,0,0,0,0,0,0,0,0,0,0,0,0,0,0,0,0,0,0,0,0,0,0,0,0,0,0,0,0,0,0,0,0,0,0,0,0,0,0,0,0,0,0,0,0,0,0,0,0,0,0,0,0,0,0,0,0,0,0,0,0,0,0,0,0,0,0,0,0,0,0,0,0,0,0,0,0,0,0,0,0,0,0,0,0,0,0,0,0,0,0,0,0,0,0,0,0,0,0,0,0,0,0,0,0,0,0,0,0,0,0,0,0,0,0,0,0,0,0,0,0,0,0,0,0,0,0,0,0,0,0,0,0,0,0,0,0,0,0,0,0,0,0,0,0,0,0,0,0,0,0,0,0,0,0,0,0,0,0,0,0,0,0,0,0,0,0,0,0,0,0,0,0,0,0,0,0,0],"sum_hessian":[2.412E3,1.308E3,1.104E3,9E2,4.08E2,1.078E3,2.6E1,5.07E2,3.93E2,3.14E2,9.4E1,9.2E2,1.58E2,1.8E1,8E0,4.9E1,4.58E2,2.21E2,1.72E2,1.13E2,2.01E2,2.4E1,7E1,7.24E2,1.96E2,2.8E1,1.3E2,1E0,1.7E1,1E0,7E0,4.6E1,3E0,1.55E2,3.03E2,3E0,2.18E2,6.4E1,1.08E2,1.4E1,9.9E1,5E0,1.96E2,3E0,2.1E1,5.3E1,1.7E1,1.48E2,5.76E2,1.31E2,6.5E1,2.5E1,3E0,9E0,1.21E2,2E0,1.5E1,1E0,6E0,4.4E1,2E0,2E0,1E0,8.9E1,6.6E1,9.9E1,2.04E2,2E0,1E0,3.4E1,1.84E2,1.9E1,4.5E1,3.5E1,7.3E1,1.3E1,1E0,1.6E1,8.3E1,4E0,1E0,1.93E2,3E0,2E0,1E0,3E0,1.8E1,1.9E1,3.4E1,1.4E1,3E0,4.2E1,1.06E2,5.04E2,7.2E1,8E0,1.23E2,5.9E1,6E0,1.2E1,1.3E1,1E0,2E0,7E0,2E0,1.17E2,4E0,4.3E1,1E0,1E0,1E0,1E0,1E0,1.9E1,7E1,6.3E1,3E0,8.5E1,1.4E1,1.71E2,3.3E1,2.8E1,6E0,7E0,1.77E2,1.7E1,2E0,3.9E1,6E0,1.2E1,2.3E1,1E0,7.2E1,1E1,3E0,9E0,7E0,1E0,8.2E1,3E0,1E0,1.32E2,6.1E1,2E0,1E0,1.4E1,4E0,1.1E1,8E0,3.3E1,1E0,1.2E1,2E0,1E0,2E0,2.8E1,1.4E1,8.9E1,1.7E1,4.7E2,3.4E1,2.1E1,5.1E1,7E0,1E0,2.7E1,9.6E1,3E0,5.6E1,1E0,5E0,2E0,1E1,3E0,1E1,1E0,1E0,1.15E2,2E0],"tree_param":{"num_deleted":"0","num_feature":"16","num_nodes":"179","size_leaf_vector":"0"}},{"base_weights":[2.2560902E-1,2.2344641E-1,4.6627173E-1,2.2859871E-1,1.628274E-1,3.2651064E-1,6.3509953E-1,2.120457E-1,2.5011924E-1,1.5583163E-1,2.8309605E-1,3.4352162E-1,6.1189413E-2,1.760552E-1,6.7552656E-1,2.06401E-1,2.705787E-1,2.3231459E-1,2.9001886E-1,1.06971726E-1,1.634855E-1,1.468919E-1,3.681584E-1,1.7001568E-1,2.1649384E-1,3.1967506E-1,2.2278765E-1,2.541683E-1,2.1263169E-1,2.5978452E-1,3.188295E-1,1.4236994E-1,5.7899036E-2,1.2431381E-1,1.7457055E-1,1.7435767E-1,-3.760474E-3,2.3185976E-1,1.756606E-1,3.485955E-1,2.127727E-1,2.3324087E-1,2.8585672E-2,3.2676688E-1,2.3944823E-1,2.1803765E-1,1.3449769E-1,1.9145058E-1,2.801571E-1,4.192906E-1,2.9334414E-1,6.593084E-2,1.6417226E-1,-7.36316E-4,9.463817E-2,1.357907E-1,7.352003E-2,1.9676337E-1,1.4979507E-1,1.7924471E-1,4.354229E-2,-1.0972822E-1,1.0314739E-1,3.1144452E-1,2.1325687E-1,-5.1031303E-2,1.7968495E-1,2.642846E-1,4.070455E-1,1.2753326E-1,2.9096317E-1,1.5298338E-1,2.6381212E-1,3.4873486E-3,3.578933E-2,1.5998307E-1,3.3829308E-1,1.420024E-1,2.4717009E-1,2.0628864E-1,2.669139E-1,1.8791104E-2,1.5564221E-1,2.2440301E-1,9.6158415E-2,2.2073531E-1,3.068022E-1,2.285098E-1,4.9138707E-1,2.0605838E-1,3.0955103E-1,2.3946047E-1,1.0600662E-1,3.8269162E-2,-5.249818E-2,4.944086E-3,1.0674531E-1,8.433697E-2,1.5137608E-1,9.132671E-2,7.464409E-3,2.0691757E-1,1.0743493E-1,1.9080712E-1,1.14027165E-1],"categories":[],"categories_nodes":[],"categories_segments":[],"categories_sizes":[],"default_left":[1,1,1,1,1,1,1,1,1,1,0,1,0,0,0,1,1,1,1,1,1,0,0,1,1,1,1,1,1,1,1,1,1,1,1,1,1,1,1,1,1,1,1,1,1,1,1,1,1,1,1,0,1,1,1,1,1,1,1,0,0,0,0,0,0,0,0,0,0,0,0,0,0,0,0,0,0,0,0,0,0,0,0,0,0,0,0,0,0,0,0,0,0,0,0,0,0,0,0,0,0,0,0,0,0],"id":32,"left_children":[1,3,5,7,9,11,13,15,17,19,-1,21,-1,-1,-1,23,25,27,29,31,33,-1,-1,35,37,39,41,43,45,47,49,51,53,55,57,59,61,63,65,67,69,71,73,75,77,79,81,83,85,87,89,-1,91,93,95,97,99,101,103,-1,-1,-1,-1,-1,-1,-1,-1,-1,-1,-1,-1,-1,-1,-1,-1,-1,-1,-1,-1,-1,-1,-1,-1,-1,-1,-1,-1,-1,-1,-1,-1,-1,-1,-1,-1,-1,-1,-1,-1,-1,-1,-1,-1,-1,-1],"loss_changes":[1.11837E0,6.9049835E-1,2.645445E-1,7.1108246E-1,1.12379074E-1,3.7653923E-2,2.9532433E-2,3.4690857E-1,5.9116745E-1,4.9077988E-2,0E0,4.0524006E-3,0E0,0E0,0E0,3.73024E-1,1.7280293E-1,2.2382736E-1,1.6281319E-1,3.865823E-2,4.4299603E-2,0E0,0E0,1.8702555E-1,5.05146E-1,7.731962E-2,1.0701418E-1,2.4342346E-1,1.16820335E-1,1.4543915E-1,2.3544312E-1,1.4174223E-2,2.8074443E-2,1.158601E-2,3.4307003E-2,1.4626694E-1,9.061967E-2,8.648224E-1,2.2994375E-1,7.475948E-2,4.9536347E-2,8.968043E-2,5.9838896E-4,3.815317E-2,1.5602684E-1,1.2984657E-1,5.82394E-2,9.146571E-2,1.03274345E-1,2.4533367E-1,9.889889E-2,0E0,2.2786677E-2,1.4123039E-2,8.159757E-3,1.0489285E-2,9.904388E-3,3.0379534E-2,6.4790845E-2,0E0,0E0,0E0,0E0,0E0,0E0,0E0,0E0,0E0,0E0,0E0,0E0,0E0,0E0,0E0,0E0,0E0,0E0,0E0,0E0,0E0,0E0,0E0,0E0,0E0,0E0,0E0,0E0,0E0,0E0,0E0,0E0,0E0,0E0,0E0,0E0,0E0,0E0,0E0,0E0,0E0,0E0,0E0,0E0,0E0,0E0],"parents":[2147483647,0,0,1,1,2,2,3,3,4,4,5,5,6,6,7,7,8,8,9,9,11,11,15,15,16,16,17,17,18,18,19,19,20,20,23,23,24,24,25,25,26,26,27,27,28,28,29,29,30,30,31,31,32,32,33,33,34,34,35,35,36,36,37,37,38,38,39,39,40,40,41,41,42,42,43,43,44,44,45,45,46,46,47,47,48,48,49,49,50,50,52,52,53,53,54,54,55,55,56,56,57,57,58,58],"right_children":[2,4,6,8,10,12,14,16,18,20,-1,22,-1,-1,-1,24,26,28,30,32,34,-1,-1,36,38,40,42,44,46,48,50,52,54,56,58,60,62,64,66,68,70,72,74,76,78,80,82,84,86,88,90,-1,92,94,96,98,100,102,104,-1,-1,-1,-1,-1,-1,-1,-1,-1,-1,-1,-1,-1,-1,-1,-1,-1,-1,-1,-1,-1,-1,-1,-1,-1,-1,-1,-1,-1,-1,-1,-1,-1,-1,-1,-1,-1,-1,-1,-1,-1,-1,-1,-1,-1,-1],"split_conditions":[1.1139247E1,1.15E1,3.35E0,1.1063244E0,6.5E0,1.25E0,1.15E1,1.69E1,7.85E1,5.7E1,2.8309604E-2,2.2315E3,6.1189416E-3,1.7605519E-2,6.7552656E-2,5.35E1,1.9692738E0,3.5E0,8.5E-1,2.4962187E0,5.5E-1,1.4689191E-2,3.681584E-2,1.55E0,1.3455E3,2.7315E3,1.0706329E0,1.4395132E0,2.95E1,8.25E1,1.54E3,5E-2,5.5E-1,2.085E1,1.55E1,4.5E-1,4.25E1,5E-1,1.366E3,1.9255E3,7.3E1,2.8272767E0,2.1E1,4.45E1,4.5E-1,1.8499999E0,4.0701323E0,1.845E1,1.745E1,9.335E2,1.9675E3,6.5930844E-3,1.25E1,1.15E1,4.3E1,3.0565447E-1,1.65E1,1.95E1,1.5E-1,1.792447E-2,4.3542287E-3,-1.0972822E-2,1.0314739E-2,3.1144453E-2,2.1325687E-2,-5.1031304E-3,1.7968496E-2,2.6428461E-2,4.0704552E-2,1.27533255E-2,2.9096318E-2,1.5298339E-2,2.6381213E-2,3.4873487E-4,3.578933E-3,1.5998308E-2,3.382931E-2,1.420024E-2,2.4717009E-2,2.0628864E-2,2.669139E-2,1.8791104E-3,1.5564221E-2,2.2440301E-2,9.615841E-3,2.2073532E-2,3.0680222E-2,2.2850981E-2,4.9138706E-2,2.0605838E-2,3.0955104E-2,2.3946047E-2,1.0600663E-2,3.8269162E-3,-5.2498183E-3,4.944086E-4,1.0674532E-2,8.433697E-3,1.5137608E-2,9.132671E-3,7.464409E-4,2.0691758E-2,1.0743493E-2,1.9080712E-2,1.1402717E-2],"split_indices":[15,1,5,15,4,8,4,7,13,13,0,2,0,0,0,13,14,1,8,14,5,0,0,5,2,2,15,15,0,13,2,6,8,9,1,6,13,1,2,2,13,14,0,13,8,5,15,9,7,2,2,0,1,0,13,15,1,0,6,0,0,0,0,0,0,0,0,0,0,0,0,0,0,0,0,0,0,0,0,0,0,0,0,0,0,0,0,0,0,0,0,0,0,0,0,0,0,0,0,0,0,0,0,0,0],"split_type":[0,0,0,0,0,0,0,0,0,0,0,0,0,0,0,0,0,0,0,0,0,0,0,0,0,0,0,0,0,0,0,0,0,0,0,0,0,0,0,0,0,0,0,0,0,0,0,0,0,0,0,0,0,0,0,0,0,0,0,0,0,0,0,0,0,0,0,0,0,0,0,0,0,0,0,0,0,0,0,0,0,0,0,0,0,0,0,0,0,0,0,0,0,0,0,0,0,0,0,0,0,0,0,0,0],"sum_hessian":[2.348E3,2.329E3,1.9E1,2.144E3,1.85E2,1.2E1,7E0,1.218E3,9.26E2,1.77E2,8E0,1.1E1,1E0,1E0,6E0,1.115E3,1.03E2,6.45E2,2.81E2,2.6E1,1.51E2,2E0,9E0,2.46E2,8.69E2,4.8E1,5.5E1,3E2,3.45E2,1.42E2,1.39E2,1.4E1,1.2E1,3.6E1,1.15E2,2.4E2,6E0,6.28E2,2.41E2,3.6E1,1.2E1,5.2E1,3E0,4.7E1,2.53E2,3.21E2,2.4E1,3.5E1,1.07E2,2.5E1,1.14E2,4E0,1E1,5E0,7E0,2.8E1,8E0,5.7E1,5.8E1,2.31E2,9E0,3E0,3E0,1.16E2,5.12E2,4E0,2.37E2,1.7E1,1.9E1,7E0,5E0,1.6E1,3.6E1,1E0,2E0,4E0,4.3E1,2E1,2.33E2,2.63E2,5.8E1,4E0,2E1,2.5E1,1E1,3.6E1,7.1E1,8E0,1.7E1,2E1,9.4E1,3E0,7E0,3E0,2E0,1E0,6E0,8E0,2E1,6E0,2E0,5E1,7E0,2.5E1,3.3E1],"tree_param":{"num_deleted":"0","num_feature":"16","num_nodes":"105","size_leaf_vector":"0"}},{"base_weights":[1.9967264E-1,1.942169E-1,3.2206643E-1,1.7958948E-1,2.1142341E-1,2.9423907E-1,5.0161374E-1,1.6642833E-1,2.1064815E-1,2.725071E-1,1.9970332E-1,3.6167145E-1,2.519619E-1,1.8295E-1,1.4370224E-1,2.1695614E-1,1.1198226E-1,3.902286E-1,2.4869804E-1,1.8959945E-1,2.664278E-1,2.574085E-1,4.0402782E-1,5.614726E-2,2.5795266E-1,1.3176301E-1,1.9829623E-1,1.0669658E-1,1.526577E-1,2.4340133E-1,1.8535347E-1,7.598522E-2,1.8854864E-1,4.2695227E-1,-3.3636887E-2,2.521764E-1,-1.1739659E-1,1.9993632E-1,1.4951415E-1,9.411512E-2,2.752106E-1,4.5991468E-1,9.866607E-2,6.9806576E-3,7.724023E-2,1.1465664E-1,2.6677048E-1,-8.441766E-2,1.4198513E-1,2.2804864E-1,1.3383313E-1,1.6775092E-1,5.5939753E-2,2.6303127E-1,1.4751087E-1,2.82141E-1,1.8999726E-1,1.7648858E-1,3.3172524E-1,1.4064741E-1,4.0296115E-2,5.8208942E-2,2.2904272E-1,3.1340793E-1,5.1437926E-1,9.133339E-2,-1.4178872E-1,2.0000146E-1,2.870671E-1,1.4710411E-1,2.0734836E-1,1.0431412E-1,1.6952223E-1,1.5326707E-1,3.980093E-2,3.6414036E-1,2.4365711E-1,3.7584372E-2,2.6311898E-1,1.9997025E-1,-8.875847E-3,2.707846E-1,3.102541E-2,-2.424798E-1,1.5447108E-1,1.293488E-1,3.4788093E-1,2.5299034E-1,1.6814388E-1,-1.06684685E-1,1.386505E-1,1.7237589E-1,7.563591E-3,2.1686202E-2,9.079175E-2,1.6242838E-1,3.1168646E-1,9.651184E-3,1.4942531E-1,4.429185E-1,2.603251E-1,1.6038692E-1,2.4872452E-1,2.0289016E-1,1.5677786E-1,1.6198006E-1,1.6992092E-2,-4.5650005E-3,5.421095E-2,3.424811E-1,-1.7735004E-2,2.3615886E-1,1.17686585E-1,2.4899583E-1,3.7224698E-1,1.9314265E-1,7.4888006E-2,2.7090913E-1,1.9370058E-1,1.2503055E-1,1.5731942E-2,8.52837E-2,1.8192533E-1,4.9092293E-2,1.3177395E-3,3.7486303E-1,4.8037052E-2,-1.1737664E-2,2.501887E-1,-2.2431692E-2,6.6077136E-2,-2.3717403E-2,1.0403633E-2,2.3115931E-1,3.0897367E-1],"categories":[],"categories_nodes":[],"categories_segments":[],"categories_sizes":[],"default_left":[1,1,1,1,1,1,0,1,1,1,1,1,1,1,1,1,1,1,1,1,1,1,0,1,1,1,1,1,1,1,1,1,1,1,1,1,0,1,1,1,1,0,1,0,0,1,1,1,1,1,1,1,1,1,1,1,1,1,0,1,1,0,0,1,0,0,0,1,1,1,1,1,1,0,1,1,1,1,0,0,1,1,0,0,0,0,0,0,0,0,0,0,0,0,0,0,0,0,0,0,0,0,0,0,0,0,0,0,0,0,0,0,0,0,0,0,0,0,0,0,0,0,0,0,0,0,0,0,0,0,0,0,0,0,0],"id":33,"left_children":[1,3,5,7,9,11,-1,13,15,17,19,21,23,25,27,29,31,33,35,37,39,41,-1,43,45,47,49,51,53,55,57,59,61,63,65,67,-1,69,71,73,75,-1,77,-1,-1,79,81,83,85,87,89,91,93,95,97,99,101,103,-1,105,107,-1,-1,109,-1,-1,-1,111,113,115,117,119,121,-1,123,125,127,129,-1,-1,131,133,-1,-1,-1,-1,-1,-1,-1,-1,-1,-1,-1,-1,-1,-1,-1,-1,-1,-1,-1,-1,-1,-1,-1,-1,-1,-1,-1,-1,-1,-1,-1,-1,-1,-1,-1,-1,-1,-1,-1,-1,-1,-1,-1,-1,-1,-1,-1,-1,-1,-1,-1,-1,-1],"loss_changes":[1.5260239E0,5.358734E-1,3.5203838E-1,4.7140884E-1,6.915512E-1,1.6259861E-1,0E0,3.02248E-1,2.0287514E-1,3.6541843E-1,5.4141235E-1,3.731823E-2,5.355501E-2,3.6899185E-1,1.07325554E-1,2.407074E-1,5.1820993E-2,4.190743E-1,2.0788193E-1,2.875023E-1,1.4511108E-1,3.4037787E-1,0E0,2.5720214E-3,4.017234E-2,2.7495503E-1,7.078829E-1,2.261343E-1,1.3048601E-1,3.249941E-1,1.4906502E-1,3.58717E-2,2.3613557E-2,7.7034E-2,5.3497337E-2,1.9562435E-1,0E0,2.0680618E-1,1.279192E-1,1.6389363E-2,2.1152115E-1,0E0,7.047135E-2,0E0,0E0,5.4469913E-2,4.080701E-2,2.640117E-1,2.5160336E-1,3.4892273E-1,1.5846634E-1,2.3885489E-2,4.936467E-2,8.111477E-3,7.430458E-2,2.4947834E-1,9.922266E-2,4.781151E-2,0E0,1.3074994E-2,8.362526E-3,0E0,0E0,1.3122976E-1,0E0,0E0,0E0,1.4780831E-1,1.699872E-1,2.4486434E-1,4.0641212E-1,9.345859E-2,9.941459E-2,0E0,1.7231163E-3,7.0118904E-2,1.3972378E-1,1.34523865E-2,0E0,0E0,1.1051596E-3,5.7537556E-3,0E0,0E0,0E0,0E0,0E0,0E0,0E0,0E0,0E0,0E0,0E0,0E0,0E0,0E0,0E0,0E0,0E0,0E0,0E0,0E0,0E0,0E0,0E0,0E0,0E0,0E0,0E0,0E0,0E0,0E0,0E0,0E0,0E0,0E0,0E0,0E0,0E0,0E0,0E0,0E0,0E0,0E0,0E0,0E0,0E0,0E0,0E0,0E0,0E0,0E0,0E0,0E0,0E0],"parents":[2147483647,0,0,1,1,2,2,3,3,4,4,5,5,7,7,8,8,9,9,10,10,11,11,12,12,13,13,14,14,15,15,16,16,17,17,18,18,19,19,20,20,21,21,23,23,24,24,25,25,26,26,27,27,28,28,29,29,30,30,31,31,32,32,33,33,34,34,35,35,37,37,38,38,39,39,40,40,42,42,45,45,46,46,47,47,48,48,49,49,50,50,51,51,52,52,53,53,54,54,55,55,56,56,57,57,59,59,60,60,63,63,67,67,68,68,69,69,70,70,71,71,72,72,74,74,75,75,76,76,77,77,80,80,81,81],"right_children":[2,4,6,8,10,12,-1,14,16,18,20,22,24,26,28,30,32,34,36,38,40,42,-1,44,46,48,50,52,54,56,58,60,62,64,66,68,-1,70,72,74,76,-1,78,-1,-1,80,82,84,86,88,90,92,94,96,98,100,102,104,-1,106,108,-1,-1,110,-1,-1,-1,112,114,116,118,120,122,-1,124,126,128,130,-1,-1,132,134,-1,-1,-1,-1,-1,-1,-1,-1,-1,-1,-1,-1,-1,-1,-1,-1,-1,-1,-1,-1,-1,-1,-1,-1,-1,-1,-1,-1,-1,-1,-1,-1,-1,-1,-1,-1,-1,-1,-1,-1,-1,-1,-1,-1,-1,-1,-1,-1,-1,-1,-1,-1,-1],"split_conditions":[2.75E0,8.5E-1,4.4E0,1.5E0,5E-1,2.55E1,5.0161373E-2,2.5E0,5E-1,5E-1,8.65E1,6.5E0,5.15E1,8.9E1,4.762409E-2,7.5E0,7.5E-1,8.5E1,2.9E0,5E-1,1.825E2,8.5E0,4.040278E-2,3.15E1,9E0,5E-1,1.5E0,5E-1,9.1E1,2.39E3,7.234647E0,1.39E1,9.5000005E-1,6.2E1,7.55E1,5.5E-1,-1.1739659E-2,2.905E2,1.4415E3,2.45E1,2.465E1,4.599147E-2,2.45E1,6.980658E-4,7.724023E-3,2.5E0,8E0,6.2E1,1.08911335E-1,1.55E1,4.5E0,5E-1,1.745E2,2.5E-1,1.275E2,1.5E0,3.005E3,1.15E1,3.3172525E-2,3.5E0,1.25E0,5.820894E-3,2.2904273E-2,5.9E1,5.1437926E-2,9.133339E-3,-1.4178872E-2,1.3499999E0,1.55E0,5E-1,1.635E1,8.0878747E-1,9.5E-1,1.5326708E-2,1.5E0,3.5254736E0,5E-1,5E-1,2.6311899E-2,1.9997025E-2,3.2E1,2.15E1,3.102541E-3,-2.424798E-2,1.5447109E-2,1.293488E-2,3.4788094E-2,2.5299033E-2,1.6814388E-2,-1.0668469E-2,1.3865051E-2,1.7237589E-2,7.5635914E-4,2.1686202E-3,9.079175E-3,1.6242838E-2,3.1168645E-2,9.651184E-4,1.49425315E-2,4.429185E-2,2.6032511E-2,1.6038692E-2,2.4872452E-2,2.0289017E-2,1.5677786E-2,1.6198007E-2,1.6992092E-3,-4.5650007E-4,5.421095E-3,3.424811E-2,-1.7735005E-3,2.3615887E-2,1.1768659E-2,2.4899583E-2,3.72247E-2,1.9314265E-2,7.4888007E-3,2.7090913E-2,1.9370059E-2,1.2503055E-2,1.5731942E-3,8.5283695E-3,1.8192533E-2,4.9092295E-3,1.3177395E-4,3.7486304E-2,4.8037055E-3,-1.1737664E-3,2.501887E-2,-2.2431694E-3,6.6077136E-3,-2.3717403E-3,1.0403633E-3,2.3115931E-2,3.0897368E-2],"split_indices":[5,8,5,3,1,0,0,1,11,10,13,3,13,2,15,1,8,13,8,11,2,0,0,0,3,1,10,0,2,2,15,9,5,13,2,5,0,2,2,2,9,0,0,0,0,1,10,13,15,0,0,11,2,8,2,1,2,0,0,3,5,0,0,13,0,0,0,8,8,10,9,15,8,0,0,15,10,10,0,0,0,3,0,0,0,0,0,0,0,0,0,0,0,0,0,0,0,0,0,0,0,0,0,0,0,0,0,0,0,0,0,0,0,0,0,0,0,0,0,0,0,0,0,0,0,0,0,0,0,0,0,0,0,0,0],"split_type":[0,0,0,0,0,0,0,0,0,0,0,0,0,0,0,0,0,0,0,0,0,0,0,0,0,0,0,0,0,0,0,0,0,0,0,0,0,0,0,0,0,0,0,0,0,0,0,0,0,0,0,0,0,0,0,0,0,0,0,0,0,0,0,0,0,0,0,0,0,0,0,0,0,0,0,0,0,0,0,0,0,0,0,0,0,0,0,0,0,0,0,0,0,0,0,0,0,0,0,0,0,0,0,0,0,0,0,0,0,0,0,0,0,0,0,0,0,0,0,0,0,0,0,0,0,0,0,0,0,0,0,0,0,0,0],"sum_hessian":[2.378E3,2.279E3,9.9E1,1.238E3,1.041E3,8.8E1,1.1E1,8.74E2,3.64E2,1.64E2,8.77E2,3.1E1,5.7E1,5.02E2,3.72E2,3.41E2,2.3E1,2.5E1,1.39E2,7.65E2,1.12E2,1.1E1,2E1,2E0,5.5E1,1.18E2,3.84E2,7.5E1,2.97E2,1.82E2,1.59E2,1.7E1,6E0,2.3E1,2E0,1.38E2,1E0,6.05E2,1.6E2,6E0,1.06E2,4E0,7E0,1E0,1E0,4E0,5.1E1,5E0,1.13E2,2.61E2,1.23E2,3.3E1,4.2E1,1.1E1,2.86E2,1.03E2,7.9E1,1.52E2,7E0,5E0,1.2E1,2E0,4E0,1.2E1,1.1E1,1E0,1E0,5.8E1,8E1,7.7E1,5.28E2,5.1E1,1.09E2,2E0,4E0,2.5E1,8.1E1,6E0,1E0,2E0,2E0,5E1,1E0,3E0,2E0,1.08E2,5E0,1.82E2,7.9E1,2E0,1.21E2,3.2E1,1E0,2.2E1,2E1,5E0,6E0,4E0,2.82E2,1E1,9.3E1,5.5E1,2.4E1,6.1E1,9.1E1,4E0,1E0,3E0,9E0,1.1E1,1E0,3.9E1,1.9E1,5.8E1,2.2E1,4.6E1,3.1E1,9E1,4.38E2,4.1E1,1E1,1.5E1,9.4E1,3E0,1E0,2.4E1,1E0,2E0,7.9E1,2E0,4E0,1E0,1E0,2.8E1,2.2E1],"tree_param":{"num_deleted":"0","num_feature":"16","num_nodes":"135","size_leaf_vector":"0"}},{"base_weights":[1.7979084E-1,1.7135887E-1,2.3250847E-1,1.8579659E-1,1.5057014E-1,2.2106285E-1,4.021962E-1,1.5804297E-1,1.981909E-1,1.4517897E-1,2.3976701E-1,1.6481316E-1,2.3375821E-1,2.8754595E-1,5.2389705E-1,1.5322897E-1,3.5792655E-1,1.9203117E-1,2.8178352E-1,1.2098187E-1,1.5892294E-1,3.9100558E-1,2.0259584E-1,1.2837562E-1,2.2944757E-1,2.8160316E-1,2.1405643E-1,3.0055583E-1,7.221866E-2,1.5816799E-1,-2.3401412E-1,8.11598E-1,7.1436405E-2,1.6201209E-1,2.0807792E-1,3.4038025E-1,1.9435513E-1,1.1539607E-1,2.311258E-1,1.745634E-1,1.2669042E-1,1.7001899E-1,4.3633127E-1,1.4210008E-1,2.7252564E-1,1.8741985E-1,6.602989E-2,3.4295368E-1,1.6874863E-1,3.1453654E-1,1.4426947E-1,9.180784E-2,2.170764E-1,1.5223545E-1,3.1801954E-1,-5.2050066E-1,1.3047712E-1,-4.675706E-2,1.422224E-1,1.3216259E-1,1.9738431E-1,2.3914568E-1,1.9138516E-1,6.1244965E-2,3.6810026E-1,7.883458E-2,2.7123877E-1,7.804146E-2,1.3144322E-1,2.7315247E-1,-1.3987224E-5,1.6543707E-1,2.9077423E-1,1.3568397E-1,4.949409E-2,1.6478324E-1,5.0367277E-2,